<?xml version="1.0"?>
<opencv_storage>
<ann type_id="opencv-ml-ann-mlp">
  <layer_sizes type_id="opencv-matrix">
    <rows>1</rows>
    <cols>3</cols>
    <dt>i</dt>
    <data>
      140 20 54</data></layer_sizes>
  <activation_function>SIGMOID_SYM</activation_function>
  <f_param1>1.</f_param1>
  <f_param2>1.</f_param2>
  <min_val>-9.4999999999999996e-001</min_val>
  <max_val>9.4999999999999996e-001</max_val>
  <min_val1>-9.7999999999999998e-001</min_val1>
  <max_val1>9.7999999999999998e-001</max_val1>
  <training_params>
    <train_method>RPROP</train_method>
    <dw0>1.0000000000000001e-001</dw0>
    <dw_plus>1.2000000000000000e+000</dw_plus>
    <dw_minus>5.0000000000000000e-001</dw_minus>
    <dw_min>1.1920928955078125e-007</dw_min>
    <dw_max>50.</dw_max>
    <term_criteria><epsilon>9.9999997764825821e-003</epsilon>
      <iterations>1000</iterations></term_criteria></training_params>
  <input_scale>
    7.8581701546337834e+000 -2.5995329392287623e+000
    7.2753843107796810e+000 -2.6180082659726507e+000
    6.8201358446123814e+000 -2.4553790181600137e+000
    5.7251567956284592e+000 -2.1743925195580207e+000
    3.7376690627109976e+000 -2.0339386860725113e+000
    3.4445181546572372e+000 -2.3820059848542425e+000
    3.8358258649158206e+000 -3.1130996071116481e+000
    3.8267619749680608e+000 -3.1221917741980585e+000
    5.0581602991164107e+000 -3.9174269938215827e+000
    5.6483130850276639e+000 -4.2784917328533929e+000
    5.5514265362888926e+000 -4.2812333949305250e+000
    5.2407488434823470e+000 -4.2725007504742285e+000
    5.1546279527221976e+000 -4.4154736529909595e+000
    4.9032763865348743e+000 -3.9906241096318449e+000
    4.5792822245036700e+000 -3.2066042236087240e+000
    4.9961140308180374e+000 -2.5294501132735818e+000
    6.2610886310583060e+000 -2.9453014496746627e-001
    1.1392131217119347e+001 -2.8972693717721726e-001
    1.3519910649706363e+001 -2.8741848647594442e-001
    1.3130399570833818e+001 -2.9052998972324068e-001
    5.8746350034912904e+000 -4.3900424905437010e+000
    6.1175576209127458e+000 -4.9528601329758182e+000
    6.1294732631493103e+000 -5.0192521052758057e+000
    6.1866560327780684e+000 -4.8248473805917360e+000
    6.4075478758982181e+000 -4.7195011496348380e+000
    6.5599078755075695e+000 -4.7836798789697097e+000
    6.5774407393505712e+000 -4.8032425381097665e+000
    6.5781043732796745e+000 -4.8246034728497849e+000
    5.7362571251527461e+000 -4.2891746032578517e+000
    5.5313353756964236e+000 -4.2833875493151021e+000
    5.5681641035708989e+000 -4.2761175390508015e+000
    5.6344093713455052e+000 -4.1240744423203237e+000
    5.8737395500735099e+000 -4.1219369741361263e+000
    5.9506598704827454e+000 -4.1877753340288075e+000
    5.9167192367120327e+000 -4.2498844749443583e+000
    5.8010716638712312e+000 -4.1415141316921771e+000
    5.2921322857608661e+000 -3.9376003930202867e+000
    5.1913957585482775e+000 -4.0487718324242152e+000
    5.1918942231820102e+000 -3.9761141373880911e+000
    5.3914446245487646e+000 -3.9130981589013722e+000
    1.8471985281565888e+000 -1.3475788744330368e+000
    1.0037087388866067e-001 -2.2484794391685323e-001
    1.4394582365530793e-002 -6.9012755231024869e-001
    1.0693487765088246e-002 -1.4596098832205637e+000
    9.9920028456524489e-003 -1.5788872807926879e+000
    1.1100549634829907e-002 -1.9265737300322534e+000
    1.1578601985821373e-002 -1.6703290963878457e+000
    1.6104826337162825e-002 -6.3973551622049862e-001
    1.2176572949670263e-001 -1.1931038809984448e-001
    4.5398697871779561e+000 -2.0610200791176256e-001
    1.7998144180135744e+000 -1.5084622361181699e+000
    6.4791390453201203e-002 -2.3896980002571372e-001
    1.2105051495994014e-002 -9.3492806817843321e-001
    1.0526891340132214e-002 -1.7960510743226996e+000
    1.2186442778257724e-002 -1.4846648375514933e+000
    1.1878769825076112e-002 -1.6552196621920436e+000
    1.0759428494428798e-002 -1.8804213303043449e+000
    1.3545808411960287e-002 -8.8405588638832844e-001
    9.8933034598811101e-002 -1.5070096810241340e-001
    4.2462030404762405e+000 -1.9468341077772106e-001
    1.8011685604881227e+000 -1.4901184981665849e+000
    5.4960635129967086e-002 -2.3421886076001519e-001
    1.1077646844219066e-002 -9.0036797439353755e-001
    1.0454426908270380e-002 -1.4997868788344313e+000
    1.0554363505259061e-002 -7.8970822386882777e-001
    1.0107452626277906e-002 -8.3158021806821714e-001
    1.0079801519440523e-002 -1.3749317097032590e+000
    1.1938359419294763e-002 -8.2213834235947014e-001
    7.0346791857149260e-002 -1.6463384035510600e-001
    4.3905191498152067e+000 -2.0575148882765867e-001
    1.8317551620323349e+000 -1.3451855245340532e+000
    5.5210441068623425e-002 -2.3084892882100885e-001
    1.1083736192774786e-002 -8.9154342582954926e-001
    1.0315259247569085e-002 -1.5475015369542551e+000
    1.0252564962855757e-002 -1.0076895803133963e+000
    1.0325187072187783e-002 -1.0355079750767846e+000
    1.0059842135387607e-002 -1.2676919642853950e+000
    1.2323132613396863e-002 -7.2899582311631728e-001
    7.5929576551226369e-002 -1.5498974057769763e-001
    4.6543059570825687e+000 -2.1654031319985365e-001
    1.7703349528265933e+000 -1.1307648059622377e+000
    6.5003495132739036e-002 -2.1638540961726241e-001
    1.1555327532348694e-002 -8.2911590332113427e-001
    9.9516035698459238e-003 -1.6034065823396699e+000
    1.0246046873234318e-002 -1.5885539402326123e+000
    1.1366519302488536e-002 -1.9611797782386997e+000
    1.1366698686230546e-002 -1.8464182124432691e+000
    1.3386465991059315e-002 -6.9786360093257471e-001
    9.0867488387984433e-002 -1.3563075601450869e-001
    4.4442813260315521e+000 -2.0326441572252002e-001
    1.7212409905527728e+000 -1.2442495703928289e+000
    6.4874491351620614e-002 -2.1775378442186413e-001
    1.1769396800686470e-002 -7.6336145897938978e-001
    1.0193145072128953e-002 -1.4396103629430006e+000
    1.1267274088283387e-002 -1.3059629961387671e+000
    1.0688815599817112e-002 -1.5269365019618426e+000
    1.0997285121607645e-002 -1.8413632700964468e+000
    1.2831695231281649e-002 -7.9579638419042598e-001
    8.6899925604266154e-002 -1.5264509856340230e-001
    3.7542391976871698e+000 -2.0384626487385557e-001
    1.7448603565414349e+000 -1.2668271936363127e+000
    5.9021967555129659e-002 -2.2822226386502484e-001
    1.1165184344840505e-002 -8.2420241235945468e-001
    9.7787161761463334e-003 -1.2373771760140755e+000
    1.2023552291761998e-002 -7.5044465939618143e-001
    1.0588967582148827e-002 -9.0694739947692338e-001
    1.0285257773833165e-002 -1.5009095805466206e+000
    1.1705917791233743e-002 -8.5517155831044611e-001
    6.3046430644161794e-002 -1.7840073125500733e-001
    3.4708118036815199e+000 -1.7320824929941572e-001
    1.2994970382348234e+000 -8.5915828741694034e-001
    5.5083811559321461e-002 -2.4055188001674616e-001
    1.1133709359034055e-002 -9.9811691380926137e-001
    1.0769260178687947e-002 -1.6258258799424570e+000
    1.1302885398434138e-002 -8.1753335899207025e-001
    9.7170477450871703e-003 -8.7764414640377220e-001
    1.0021029416215244e-002 -1.4445578624821362e+000
    1.1630350021065449e-002 -8.7610586891815068e-001
    6.6134029042594092e-002 -1.7985893084896998e-001
    4.0766101663209726e+000 -1.8277468133330485e-001
    7.2579145815120361e-001 -5.1018798004545574e-001
    6.9730104305411031e-002 -2.2900883867522284e-001
    1.2029213352074988e-002 -9.9454777013500006e-001
    1.0688907171156999e-002 -1.8679783417421798e+000
    1.2418437254218932e-002 -1.5047866824376059e+000
    1.2761220279151933e-002 -1.6200295110042455e+000
    9.5655542141343704e-003 -1.5284617724391734e+000
    1.3935778130364281e-002 -8.3647479164400917e-001
    9.1781370160798792e-002 -1.4261937816808137e-001
    4.8022287205968741e+000 -1.6175131096749637e-001
    1.6010248396000897e+000 -1.2147011709706661e+000
    9.5331724033627954e-002 -2.0378672921731711e-001
    1.4708486611201898e-002 -6.6160187787613745e-001
    1.1388022266743077e-002 -1.4897462558885430e+000
    1.0071550991958248e-002 -1.5899855553433893e+000
    9.8688513197595414e-003 -1.4341340918822225e+000
    1.1102227795790670e-002 -1.2924859159017172e+000
    1.6692207438814197e-002 -5.6311049911732503e-001
    1.2069109440843220e-001 -1.1536148879751575e-001
    4.5804795017763063e+000 -1.6769807796297168e-001</input_scale>
  <output_scale>
    5.2631578947368418e-001 4.9999999999999994e-001
    5.2631578947368418e-001 4.9999999999999994e-001
    5.2631578947368418e-001 4.9999999999999994e-001
    5.2631578947368418e-001 4.9999999999999994e-001
    5.2631578947368418e-001 4.9999999999999994e-001
    5.2631578947368418e-001 4.9999999999999994e-001
    5.2631578947368418e-001 4.9999999999999994e-001
    5.2631578947368418e-001 4.9999999999999994e-001
    5.2631578947368418e-001 4.9999999999999994e-001
    5.2631578947368418e-001 4.9999999999999994e-001
    5.2631578947368418e-001 4.9999999999999994e-001
    5.2631578947368418e-001 4.9999999999999994e-001
    5.2631578947368418e-001 4.9999999999999994e-001
    5.2631578947368418e-001 4.9999999999999994e-001
    5.2631578947368418e-001 4.9999999999999994e-001
    5.2631578947368418e-001 4.9999999999999994e-001
    5.2631578947368418e-001 4.9999999999999994e-001
    5.2631578947368418e-001 4.9999999999999994e-001
    5.2631578947368418e-001 4.9999999999999994e-001
    5.2631578947368418e-001 4.9999999999999994e-001
    5.2631578947368418e-001 4.9999999999999994e-001
    5.2631578947368418e-001 4.9999999999999994e-001
    5.2631578947368418e-001 4.9999999999999994e-001
    5.2631578947368418e-001 4.9999999999999994e-001
    5.2631578947368418e-001 4.9999999999999994e-001
    5.2631578947368418e-001 4.9999999999999994e-001
    5.2631578947368418e-001 4.9999999999999994e-001
    5.2631578947368418e-001 4.9999999999999994e-001
    5.2631578947368418e-001 4.9999999999999994e-001
    5.2631578947368418e-001 4.9999999999999994e-001
    5.2631578947368418e-001 4.9999999999999994e-001
    5.2631578947368418e-001 4.9999999999999994e-001
    5.2631578947368418e-001 4.9999999999999994e-001
    5.2631578947368418e-001 4.9999999999999994e-001
    5.2631578947368418e-001 4.9999999999999994e-001
    5.2631578947368418e-001 4.9999999999999994e-001
    5.2631578947368418e-001 4.9999999999999994e-001
    5.2631578947368418e-001 4.9999999999999994e-001
    5.2631578947368418e-001 4.9999999999999994e-001
    5.2631578947368418e-001 4.9999999999999994e-001
    5.2631578947368418e-001 4.9999999999999994e-001
    5.2631578947368418e-001 4.9999999999999994e-001
    5.2631578947368418e-001 4.9999999999999994e-001
    5.2631578947368418e-001 4.9999999999999994e-001
    5.2631578947368418e-001 4.9999999999999994e-001
    5.2631578947368418e-001 4.9999999999999994e-001
    5.2631578947368418e-001 4.9999999999999994e-001
    5.2631578947368418e-001 4.9999999999999994e-001
    5.2631578947368418e-001 4.9999999999999994e-001
    5.2631578947368418e-001 4.9999999999999994e-001
    5.2631578947368418e-001 4.9999999999999994e-001
    5.2631578947368418e-001 4.9999999999999994e-001
    5.2631578947368418e-001 4.9999999999999994e-001
    5.2631578947368418e-001 4.9999999999999994e-001</output_scale>
  <inv_output_scale>
    1.8999999999999999e+000 -9.4999999999999996e-001
    1.8999999999999999e+000 -9.4999999999999996e-001
    1.8999999999999999e+000 -9.4999999999999996e-001
    1.8999999999999999e+000 -9.4999999999999996e-001
    1.8999999999999999e+000 -9.4999999999999996e-001
    1.8999999999999999e+000 -9.4999999999999996e-001
    1.8999999999999999e+000 -9.4999999999999996e-001
    1.8999999999999999e+000 -9.4999999999999996e-001
    1.8999999999999999e+000 -9.4999999999999996e-001
    1.8999999999999999e+000 -9.4999999999999996e-001
    1.8999999999999999e+000 -9.4999999999999996e-001
    1.8999999999999999e+000 -9.4999999999999996e-001
    1.8999999999999999e+000 -9.4999999999999996e-001
    1.8999999999999999e+000 -9.4999999999999996e-001
    1.8999999999999999e+000 -9.4999999999999996e-001
    1.8999999999999999e+000 -9.4999999999999996e-001
    1.8999999999999999e+000 -9.4999999999999996e-001
    1.8999999999999999e+000 -9.4999999999999996e-001
    1.8999999999999999e+000 -9.4999999999999996e-001
    1.8999999999999999e+000 -9.4999999999999996e-001
    1.8999999999999999e+000 -9.4999999999999996e-001
    1.8999999999999999e+000 -9.4999999999999996e-001
    1.8999999999999999e+000 -9.4999999999999996e-001
    1.8999999999999999e+000 -9.4999999999999996e-001
    1.8999999999999999e+000 -9.4999999999999996e-001
    1.8999999999999999e+000 -9.4999999999999996e-001
    1.8999999999999999e+000 -9.4999999999999996e-001
    1.8999999999999999e+000 -9.4999999999999996e-001
    1.8999999999999999e+000 -9.4999999999999996e-001
    1.8999999999999999e+000 -9.4999999999999996e-001
    1.8999999999999999e+000 -9.4999999999999996e-001
    1.8999999999999999e+000 -9.4999999999999996e-001
    1.8999999999999999e+000 -9.4999999999999996e-001
    1.8999999999999999e+000 -9.4999999999999996e-001
    1.8999999999999999e+000 -9.4999999999999996e-001
    1.8999999999999999e+000 -9.4999999999999996e-001
    1.8999999999999999e+000 -9.4999999999999996e-001
    1.8999999999999999e+000 -9.4999999999999996e-001
    1.8999999999999999e+000 -9.4999999999999996e-001
    1.8999999999999999e+000 -9.4999999999999996e-001
    1.8999999999999999e+000 -9.4999999999999996e-001
    1.8999999999999999e+000 -9.4999999999999996e-001
    1.8999999999999999e+000 -9.4999999999999996e-001
    1.8999999999999999e+000 -9.4999999999999996e-001
    1.8999999999999999e+000 -9.4999999999999996e-001
    1.8999999999999999e+000 -9.4999999999999996e-001
    1.8999999999999999e+000 -9.4999999999999996e-001
    1.8999999999999999e+000 -9.4999999999999996e-001
    1.8999999999999999e+000 -9.4999999999999996e-001
    1.8999999999999999e+000 -9.4999999999999996e-001
    1.8999999999999999e+000 -9.4999999999999996e-001
    1.8999999999999999e+000 -9.4999999999999996e-001
    1.8999999999999999e+000 -9.4999999999999996e-001
    1.8999999999999999e+000 -9.4999999999999996e-001</inv_output_scale>
  <weights>
    <_>
      1.0661033862934655e-001 -1.2318363492909766e-001
      1.5426091483199922e-001 -2.0745388564781464e-001
      1.0390994762624044e-001 -1.0306456866253164e-001
      1.7240042709724865e-001 3.0379449505398039e-002
      -1.1047856022881591e-001 1.4104075549258507e-001
      -1.1184638530830870e-001 1.0061493266907909e-001
      -1.4599924636473285e-001 -1.5706326914526586e-001
      5.7824426650182681e-001 5.3661369747482736e-002
      -6.7854885536851622e-002 2.7963394799787431e-003
      1.7376387697729159e-002 -1.6996575677147626e-003
      -2.6707066366227515e-002 -6.6307021640521949e-002
      1.1686542416043910e-001 6.2100622252017686e-002
      2.6760102995094892e-001 -1.1842665239185635e-001
      5.2304833297208551e-002 -3.8968443821201411e-002
      -2.1981160515188425e-001 -4.2422220264458591e-002
      -3.2607682212561434e-001 8.8763846097084362e-002
      -8.4121217479084978e-002 3.7898993061415703e-001
      2.8942860925498548e-001 -2.5074567179529054e-002
      5.6156100797302093e-002 7.4968605218293918e-002
      -1.5372720976823070e-001 2.5377830765018339e-001
      8.8749771213091216e-003 -1.3795550344571181e-001
      6.8879119995914423e-002 -1.5848367454826381e-001
      3.5881282995176988e-001 -2.3137297304154658e-001
      5.9795000847783907e-002 -7.9047630897062737e-002
      -7.5192975377467580e-002 1.9507618647676930e-001
      6.4347293823735177e-002 -9.9799512791171913e-002
      -5.9984590470702606e-002 2.3544417211974264e-001
      7.9705224829662843e-002 -1.3985798560788767e-003
      -2.0052182779443394e-002 -3.9776074518961195e-002
      -1.7904971122736574e-001 -1.7145419218360841e-001
      6.0353143408364791e-002 -2.2237603239765959e-002
      1.4328846345045054e-001 -2.5736826720239486e-001
      1.7553419629716774e-001 -6.9081365390395305e-002
      1.1491445447403145e-001 -8.3997390764081220e-002
      -7.0835401217988911e-002 1.8824575268396626e-001
      5.8744461504808387e-001 -1.7133015619784961e-001
      -1.5459273894887233e-002 4.7744597352704837e-001
      7.0914408799955767e-002 -5.2832330188950449e-002
      4.0708077619292043e-002 1.7919251021655233e-001
      -1.2937696374156329e-001 5.7864450100461227e-002
      1.2263571505711991e-003 -7.5769923728938099e-003
      -1.0392705986170636e-001 3.0061203254857668e-002
      -6.9173196222408445e-002 2.1812349378060542e-001
      1.5306551842281349e-001 -1.4441122352549965e-001
      8.0760196178222748e-002 -6.1822677379602148e-002
      5.7156076584102999e-001 7.6022842083599565e-002
      -8.2110310671592746e-002 4.8471877433393443e-002
      -8.3970187420129794e-002 3.3096717464994561e-002
      2.2217099002587520e-001 2.3997910411005224e-002
      -1.1924247354977087e-001 1.1798257350956248e-001
      -9.8596923523929403e-002 1.7371259495441577e-001
      1.1016887712647329e-001 1.2137910048378103e-001
      2.2679165712416623e-002 5.5806196852476575e-001
      7.8148129771202120e-003 -3.1437560339104650e-002
      1.5986040038424901e-001 4.7572006910312784e-002
      3.4276636996180321e-001 -1.0620005188016049e-001
      1.2019710617997436e-002 7.5054906818055572e-002
      1.5930068081636525e-001 3.6033732209605082e-002
      -2.6990905130034004e-001 -2.3701681400845307e-002
      6.0969865314494831e-002 -1.0440014387655579e-002
      7.2057669841029282e-003 -3.1101786551741794e-002
      -6.0133797906531922e-002 4.8835304423714498e-001
      1.2396228317483293e-001 6.6261988759568069e-001
      1.2522526318820226e-001 -1.2900545478572184e-001
      -2.0439925684034278e-002 -1.6235453629343036e-001
      3.9248087721442293e-001 -4.7522662359496648e-002
      -2.0216583101908454e-002 9.2018634019622070e-002
      3.8344812509851373e-001 6.1062044571571501e-002
      4.8763868856664810e-001 -7.8517176032785616e-002
      -7.8086439805197361e-002 2.2135816115058493e-001
      -1.6751153918894643e-001 -6.3614279540736715e-002
      3.4881741153482848e-001 1.8520626158891951e-001
      6.4292242511489572e-002 3.7929639986471259e-001
      1.4066610471078611e-001 -1.1635980193433086e-001
      -1.0557050723757316e-001 -5.8344067355232065e-001
      2.5740263994303259e-001 1.4231023794397238e-001
      -6.1334248181641919e-003 2.3529578420757424e-002
      6.7168679449663526e-001 1.1055911478740703e-002
      1.2607041164412164e-001 1.6163597943079217e-002
      -1.1984179470556096e-001 2.5730430077199412e-001
      -5.4714099710968755e-001 1.2516773015504704e-001
      4.6792351136693985e-002 -6.9481619295633887e-002
      2.2135661478492896e-001 1.6292210417690731e-001
      1.3478396560264430e-001 4.3258520015410126e-002
      1.1219783307843822e-001 -1.4901443770612019e-001
      -1.3810470229577287e-001 -7.7150153037887179e-002
      -3.0731304862131953e-001 4.4741122445236570e-001
      3.5006595333741958e-001 8.2104637577486234e-002
      1.8690199244786973e-001 -2.1007284411426710e-002
      -7.3349081269054928e-002 7.4061112000408050e-003
      4.7849050836418155e-001 4.9407691322944258e-002
      3.2804075976417219e-001 -1.2749170327310808e-001
      3.5945422039402808e-001 -4.4556396959851786e-002
      -3.9367947348321358e-002 -5.0353947919170867e-002
      -2.8987710073571073e-002 2.7816567375889112e-002
      -2.6355891773223206e-001 4.4377208478324492e-002
      -9.2367865760102405e-002 1.9491343771594474e-001
      1.1942020978222921e-001 -5.0120250349982125e-002
      -2.1893415444173090e-002 8.3056352034974086e-003
      7.1153661948675936e-002 2.1694338314144052e-001
      2.3029055294979600e-001 -5.4069549950671297e-003
      2.6644718618719138e-001 -2.0487029516102895e-001
      3.3166697282662144e-001 -2.4026546219977596e-001
      5.2507779475748868e-002 -3.6502697363242631e-002
      -2.6644686362588828e-002 -7.2260430853445995e-002
      -1.5527634014496589e-001 -8.5755000451915621e-003
      2.2107848523928589e-001 -2.5766943374548440e-001
      3.9429989618404701e-002 -2.7376070348873782e-001
      -3.4248972971378921e-001 2.0956017901776963e-001
      2.2469508754144837e-001 8.0287493561145884e-001
      7.0908607581335230e-003 5.6781714137650943e-002
      1.8808003128159509e-001 -1.7576568166139055e-002
      -1.0921139385814077e-001 1.4015193955110555e-001
      1.3884896572232761e-001 -8.4200084123324304e-002
      -2.0317531069715855e-001 -1.3990815011145186e-002
      -2.6443109883307636e-001 -1.0718702586090724e-001
      8.2548711136163549e-002 1.5736551215024036e-001
      4.4418936523099367e-001 1.6286965637548448e-001
      -8.4961822092538795e-003 -3.7434528037549909e-002
      1.4469265185607838e-001 4.6713729442461666e-001
      -2.4634404464814016e-001 -9.9806840557598225e-002
      -5.6647509765368573e-002 -1.2579367881867606e-001
      -4.7622552031988113e-001 3.3179167453680075e-001
      -1.9238594196030617e-002 3.9952378646647330e-002
      -8.3586565782977754e-002 1.8841224573011194e-002
      1.0673298869132392e-001 -1.9439210095917497e-001
      -1.7762483906019144e-002 2.7173689207614132e-001
      6.5074572666908170e-001 2.6210988574646693e-001
      2.0402044625281300e-002 -5.6895173487374891e-002
      -8.0958999665098993e-002 9.5259472210100338e-002
      -1.3253085828534536e-001 -3.5297090221872822e-002
      -4.4792755569420700e-001 1.9362560764789419e-001
      -2.7084194420792179e-001 5.0743024786502791e-002
      4.7685585882895003e-002 -6.6680033877920708e-002
      -1.7216793783143589e-001 1.0518387814858512e-001
      -5.9178007028315542e-002 -7.2299325055452668e-002
      -2.9760938146739011e-002 1.4545230806832204e-001
      3.8622098236085101e-001 8.9646775487900243e-001
      -3.6684602979186054e-001 -1.5623240125042512e-001
      4.5478539934582313e-002 2.0994956188603194e-002
      -1.1510841037946487e-001 1.7190345469820515e-002
      7.1517456579520584e-003 -6.2847891903433178e-002
      4.3276672216800829e-002 -2.8353284559999703e-001
      8.9299246310737233e-003 -3.0615914888392676e-002
      -2.2114924864606994e-001 7.1476136080048949e-002
      -3.0244286957421349e-003 6.8476366630527405e-002
      -1.4807522730527335e-002 1.0231692620549351e-001
      -1.2286456790567636e-001 1.3918634719071049e-001
      1.2538318357323219e-002 2.4618138872838780e-001
      -1.2867090269604520e-001 2.1157056338606650e-001
      2.2280754883171671e-002 -4.1495650357775450e-002
      -3.0590016145487939e-002 -4.0899119571987180e-001
      -8.2429631399352169e-003 1.1630670989224831e-001
      7.2766843729602959e-002 -5.5066808025032103e-002
      4.3468059627307584e-002 4.6766223312259174e-003
      -1.0576322286320364e-002 -3.0129869773481344e-001
      5.0956092157067798e-002 3.3162994356225067e-001
      -1.1538391197953232e-001 1.1667314415020943e-001
      3.8213977923046309e-002 -3.7655704194753413e-002
      -1.6074330554927038e-001 -1.1282469762741403e-001
      1.6563832205217083e-001 8.0422499370890507e-002
      -5.8873673348025499e-002 -2.5810838774600525e-002
      1.8887327238168791e-001 1.1069137363503895e-001
      6.2826213556633217e-002 -3.2110166103449737e-002
      -3.2601707102640254e-001 -3.1809121748141551e-002
      3.1768380803647966e-001 5.5209281363036392e-002
      4.5603472908730382e-002 -6.5956178059213250e-002
      9.5069337789474392e-002 -6.9153024920875605e-002
      1.5840941023930730e-001 3.1302458574806846e-001
      -6.1768203409600049e-002 4.5384297436937598e-001
      1.0816351277355224e-001 -1.2587641148088524e-002
      2.9519206767005861e-002 -2.2468399466982897e-002
      4.4703943021150516e-001 1.9210353326538704e-001
      1.1169777941720481e-001 -9.8036100710638587e-003
      -3.3686162877233128e-001 -4.9033960459330547e-002
      1.8856267387738709e-001 5.6249955045324734e-002
      -1.2529656311564163e-001 1.4308761769439973e-001
      -1.1112699396645011e-001 -2.2929750578089522e-001
      2.6954216034967676e-001 -1.8036937141647980e-001
      -4.4429174423841346e-002 -1.5068655935025582e-001
      5.1815079899049557e-002 1.1494588051805868e-001
      -2.8296681339884930e-002 2.6907395775673737e-001
      2.7575908451225833e-001 -4.2037845223241477e-001
      9.0098794541244628e-002 -3.4048056005077931e-003
      -3.0850040887073177e-001 -3.1893934809502332e-002
      1.9485066698457001e-001 -2.3832010128188967e-002
      8.6450299434203862e-002 1.5343906441118799e-001
      1.6183066921810568e-001 -9.8907038552189325e-002
      1.6969153541034385e-001 2.6239045865069652e-003
      -4.2303317026170614e-002 2.2034649244514551e-001
      5.6847147126132938e-002 1.1102872576996545e-001
      -1.4482876323699240e-002 4.8533419207460841e-002
      2.5078160098523222e-001 1.8722757486837235e-001
      8.3231937832747557e-002 -3.3642685025098415e-002
      -1.9645943873228869e-001 -4.2057935202620036e-002
      2.0075357467687635e-001 -1.2994354309566516e-001
      -1.2569711673166295e-001 1.3836127360813319e-001
      -1.1529229645862518e-001 -1.7451410011168375e-001
      1.9100456101252478e-001 -1.8202180939381329e-001
      -6.8576075062590586e-002 7.2799767339049692e-001
      -1.2276722776986182e-001 -6.0738396475514184e-002
      -3.2947285516749442e-002 -4.9351635797313165e-001
      1.9421960807763042e-001 1.4983742457039465e-001
      -2.0572940965226988e-001 3.9964608951658132e-001
      -4.3926982370421169e-002 1.6518700035106536e-002
      -1.0154010466327770e-001 -2.1535037337384538e-001
      -1.3580657404495167e-001 -2.2235424850587296e-001
      -3.0485345086568211e-001 1.4636160234466167e-001
      1.4096915574323673e-001 1.3476122934547899e-001
      -1.0132239533321487e-001 -8.9137415613204873e-002
      -7.1506854091835337e-001 -7.0717264675185132e-002
      -1.9891462767251678e-002 -4.6332648013983169e-001
      2.5184204345423838e-001 2.9689339981690344e-001
      -1.4615164452280680e-002 1.4949730706412782e-002
      2.3036756565001648e-002 -3.9415644465313558e-002
      1.4723498443879263e-001 -1.4816189834578172e-001
      1.5393483075287944e-003 -1.7402581062783720e-001
      -1.5036561456513434e-001 -1.5339854204266040e-001
      -5.6257274685831048e-002 -1.1332254841482672e-001
      3.2592009622910562e-003 6.8837517564019832e-002
      -6.6941120048568714e-001 -1.5355572939303794e-001
      -7.4091688719858703e-002 -3.5688769401039183e-001
      3.0028891217464543e-001 -1.6528776963997557e-001
      1.5388476387702829e-001 -1.4856221630638933e-001
      9.4965300740716699e-002 -1.7934124113156424e-001
      -3.5543349719223377e-002 -2.1823158437442938e-003
      -1.0011610547186366e-001 5.5670711610056496e-003
      -4.2757417102990039e-002 -2.2868985415237156e-001
      1.4154339262834340e-001 -9.6014587023884795e-002
      9.4035955997629636e-002 -5.5421986817217571e-003
      4.1630689457990552e-003 -1.0607836234187129e-001
      -1.6837111962176760e-001 -1.1430671385717722e-001
      1.4499900620614314e-001 3.7212336221357489e-001
      -7.2394935636031693e-002 -1.3110302972600155e-001
      1.8428584622441371e-001 -4.5111077408988259e-002
      -4.3271736149232359e-001 1.4662957270749793e-002
      1.7065584489487237e-001 1.2565074535253618e-001
      -1.2136658207991326e-001 -1.9130646088800077e-001
      -3.0927612267026824e-002 -6.5086847072846052e-002
      9.4134425428306606e-002 -9.7129259158722295e-002
      2.1718480491835288e-001 -7.9518194285080349e-002
      6.2742121585532195e-003 -1.2619844000882477e-001
      1.1072669450904776e-001 2.1430838015031653e-001
      -1.1974279647339967e-001 -3.3926998286758597e-001
      1.7556178904875189e-001 1.3755136760062711e-001
      2.4561081475488494e-002 4.5645788261343533e-003
      2.1881068034263945e-001 9.7100491509771930e-002
      -9.8223980467299729e-002 -1.4424927815696156e-001
      -7.2689067034033120e-002 -7.3887260386956949e-002
      3.0327544080752646e-002 4.0504707056915012e-001
      2.5231990210970034e-001 1.3142379770487972e-001
      -1.2240813256151992e-002 5.4598918740144858e-002
      -5.7006652960751816e-002 -1.7479314422931461e-001
      -1.8935787395516657e-002 -2.4817341370432808e-001
      1.2578360285428833e-001 1.5689243361756178e-001
      -1.1377035398130333e-001 1.4790240647691810e-001
      2.1259835596782709e-001 4.2974515365601057e-001
      3.2301811438751070e-002 -1.1475004386149992e-001
      -2.3442511866842061e-001 -3.5738742278546273e-002
      -1.3201875607653737e-001 5.8408955954006758e-001
      -8.2008497777012589e-003 2.1997621164314252e-001
      -2.3100646416959868e-003 -9.4547535118488901e-002
      -1.0487431736697288e-002 -8.3423505973356640e-002
      2.0199785786988854e-002 -6.1389382718527369e-002
      2.7427686141068547e-001 2.1082695451938974e-001
      -1.4349455865918398e-001 3.0574739423017749e-001
      3.2593301193328045e-001 2.6295138502346810e-001
      -2.8698552676305243e-002 -8.1199046133724386e-003
      -1.6049146153976857e-001 -6.2741464828704199e-002
      -1.2843929931196607e-001 1.4331126119250623e-001
      -2.8635536408158890e-001 1.7897099347728412e-001
      1.4391589648455066e-001 -1.2858433118058749e-001
      1.1406834912062559e-002 9.3613661441140222e-002
      7.1649810888173363e-002 1.8217100884102271e-002
      1.1268449283461927e-001 1.5971641681587578e-001
      -1.4779143140980799e-001 1.4974439160311798e-001
      5.4521946892477913e-002 -1.1295873163900991e-001
      1.7614401745580957e-001 3.7069659034896514e-002
      9.8329394952210353e-002 -7.8756860455124797e-002
      1.4097720253874549e-001 1.3552626521806357e-002
      1.9730486543353165e-001 -2.7295922828398927e-001
      1.3461520714722081e-001 2.3057781199697470e-002
      1.7238299522940821e-002 1.0779317928786732e-001
      -2.6887299226148683e-002 3.2627539611127514e-002
      3.3088394267450603e-002 8.6492658749207099e-002
      2.4751865883479401e-001 1.9912754248620870e-001
      -8.0583571937578369e-002 -4.4471633539531591e-001
      1.1513616721631811e-001 -2.2756475274868787e-001
      1.0288653355906796e-001 -7.3626979571191062e-002
      1.7341650464612757e-001 -4.8414269454078152e-001
      -5.3245076971257660e-002 4.6963880776509717e-002
      1.5110445860651683e-001 -2.2000439044610254e-001
      -3.3137853390106392e-001 2.6706877796468570e-001
      4.1402860100348549e-002 5.6217756739359492e-001
      -5.1405270178455253e-002 3.5543779029665053e-002
      1.4925074265363236e-001 3.2478808887535271e-001
      -7.7275646288560276e-002 -6.0517962460368746e-001
      2.0256959645361575e-001 1.8770899644136527e-001
      2.0641958041921665e-001 -1.0797256325555540e-001
      2.4139631463251737e-001 1.9404295280582279e-001
      -2.4503333014631628e-002 3.9829486112016130e-002
      1.3830283853405043e-001 9.3409167419956252e-002
      -5.5990643570496254e-002 5.2861216967772615e-002
      -9.2344232823865537e-003 1.3304386858967976e-001
      9.8417948156459351e-002 -1.3815458167034304e-002
      7.6454909920675634e-002 2.8457209145372181e-001
      1.4705379703816664e-002 -1.8198746320588174e-001
      -5.2834113901467916e-003 2.5483884403730578e-001
      1.0051239767406070e-001 -1.7229986634733668e-001
      -4.2270278446186998e-002 3.8835597853125917e-002
      -1.1259097305171208e-001 4.2975384772025899e-001
      1.4550886127149060e-001 1.9016057351268001e-001
      7.4025923156576237e-003 4.1595268912529900e-003
      6.6563649217362686e-003 -1.4370336768493361e-001
      8.1300551383321706e-002 9.0287825989904778e-004
      -5.7681324033635246e-002 1.6883203636483476e-001
      5.1289918395417237e-002 3.1589443975706627e-001
      3.0056306957600309e-002 9.8024035998755657e-002
      1.7645072655229621e-001 5.3056191538802540e-002
      -9.9223286963374582e-002 -1.6508696048432711e-001
      -1.5000521502184766e-001 3.9173819014765715e-001
      6.5885118291129932e-002 1.5632344094485834e-001
      -2.3853058647834313e-001 3.4551848791997061e-002
      -2.0520196663807519e-001 -8.3161403024832936e-002
      2.6054729704018800e-002 5.7241257184302785e-002
      -9.0062017598134134e-002 2.1667493879556323e-002
      1.9576153560369439e-001 2.4539676419210391e-001
      7.6652320999867171e-002 4.7971322748705976e-002
      8.2828081021315197e-002 2.0932894662101253e-002
      2.1577378242254999e-001 -1.5201719806612880e-002
      -2.4103116920373580e-001 1.9075438096339545e-001
      3.0841316671699781e-003 4.3521815815581170e-002
      9.7299298512993626e-002 1.0997647535735081e-001
      -8.6737214784027544e-002 -2.4579270378932133e-001
      3.8081047827106931e-002 2.0970147407812154e-002
      -1.0625752200303314e-001 2.3830280643799366e-004
      -2.8840084915603259e-001 8.7866714615669597e-002
      4.4554180384461378e-002 -7.8010449711880731e-002
      1.7705169774259227e-001 -9.4817872731617445e-002
      -4.3266194762959564e-002 3.8267977323471658e-001
      -2.2120941386206752e-001 -2.3402523112009046e-002
      -1.2152377398685708e-002 1.7156805815470719e-001
      -2.2390371749575630e-001 3.0456888217155240e-002
      -4.5193253919770639e-003 6.8490571362596536e-002
      -1.2205302426372315e-001 -1.8799255969241985e-001
      1.7714631880162823e-001 -1.7100911226199472e-001
      -2.1123403431549567e-001 2.5123220270543983e-001
      4.1241003486119178e-002 8.3236971499643736e-002
      8.3748838652242252e-002 -1.1802428014633040e-002
      -1.8866684750828044e-001 5.3596964741420650e-001
      -1.6283220882968438e-001 5.3356024806131372e-002
      -9.6937615060351447e-003 1.9438198478368163e-001
      -3.8283703186236800e-001 6.2151717213608459e-002
      -2.8614187936516312e-002 -1.0268487105493000e-002
      -2.4093141344549346e-001 -7.0239200101799751e-002
      1.9134544007138343e-001 -1.0496593407915709e-001
      -2.1623180109040974e-001 1.5445444341508127e-001
      3.9091377698921168e-002 1.5326115954176334e-001
      -1.4524191162473443e-001 8.8539167965976814e-002
      -1.9320160292135574e-001 -1.1007177587844226e-001
      -2.3328868059511548e-001 -3.6491282321642268e-002
      -2.8890554433770817e-002 3.5933823628295192e-001
      -2.8906508487147092e-001 -4.9818136272162507e-002
      -1.6154256118070386e-002 -1.7045096712794833e-002
      -2.9515096815343267e-001 2.2546036715009773e-001
      4.6277965667565670e-003 7.5793633866070567e-003
      1.2802858195896660e-002 3.8638341878909366e-001
      4.9394281532493395e-003 2.3205614924743403e-001
      3.3827057432601712e-002 -2.7666981397686856e-002
      -4.8946705620763253e-002 3.4387573952362589e-002
      1.0692518600532550e-001 -2.5869626403543969e-002
      -1.0467143645503434e-001 1.1084965180126415e-001
      -1.7469412981501564e-002 -1.2349967194096567e-001
      -1.5520134135974689e-001 -2.7249345025819278e-002
      9.6806876308298359e-002 -1.2564492805067062e-001
      7.9869466676123740e-002 2.6396933104566339e-002
      -4.4633439319183725e-002 1.0595911195406084e-001
      3.8349520774902957e-001 8.2675340570855307e-002
      6.3369001900836400e-002 -2.7242480726811982e-002
      -1.0044645881206458e-001 -3.8175886824322497e-001
      -5.8824568757261879e-002 5.3004261677999575e-003
      -6.5194300413984968e-002 3.8039824102548032e-002
      2.5530699033421977e-002 -2.9958398689959159e-001
      -9.3160537694093673e-002 -1.0561414640464659e-002
      9.8338204157421491e-002 -1.4487571171533711e-001
      6.4458927956263946e-003 7.9751769909431600e-002
      1.1730534337872777e-002 3.8355881138240080e-002
      1.8379670855367772e-001 2.4908550502709289e-002
      -1.5637206719629151e-001 2.2320800085477634e-002
      -1.4496199933493379e-002 -4.5928298719093724e-001
      -4.8240617931783587e-002 -2.0941977230391057e-002
      -8.3971017539241646e-002 -1.3315160904146289e-001
      8.2776157030672731e-003 -4.5850493620705834e-001
      5.7026237814683890e-002 -1.6092060533439526e-001
      4.8532866922048105e-002 -1.6002881622714524e-001
      -1.7591535041461792e-001 1.2418992803258545e-002
      -3.0301582596245883e-002 3.7340139989016162e-002
      -5.2666319625890370e-002 5.2076586978736872e-004
      1.4359271642048160e-001 1.2636001260712132e-001
      3.8948130164507189e-001 -2.3615536182864959e-002
      3.1401354907446977e-001 -2.8959004545233133e-002
      -6.3380954738626094e-002 1.9171355520621075e-001
      6.4407174398865785e-002 -3.4761077554510394e-001
      -5.7652346233356293e-002 7.9661550124477572e-003
      -3.4491636402128739e-002 -3.1011460259279061e-002
      -1.2893334531846271e-001 -4.5501680260978637e-002
      -1.0612739534787335e-001 -1.5078744132135741e-001
      -2.3621403021830900e-001 -1.2988805171025053e-001
      -1.2025742699782338e-001 -1.3411770289628755e-001
      -1.7392045660836110e-002 -1.0591374353459108e-001
      4.6714142780672085e-001 -6.5342789915138991e-002
      -7.5982688831470052e-002 7.5996115875404391e-002
      2.1249150881651460e-001 -2.1567754505269301e-001
      1.0173031719007515e-001 1.2779318525641886e-001
      -1.9866185076287152e-001 1.3248673706769867e-001
      -1.1225208234407755e-001 -1.7603973373828274e-001
      1.6876656290727499e-001 -2.0633915296745040e-001
      3.2675984918685802e-001 -2.1884830866742822e-001
      -4.3566150066358883e-001 5.3833065858402446e-002
      1.1843808641237188e-001 -6.3873361767977518e-002
      1.3175871360537897e-002 2.7607421308219242e-002
      -1.2636344422527210e-001 -7.5948341342389009e-002
      -3.2659393729046321e-001 -4.1614867803234101e-001
      1.2208419763400399e-001 4.6130657764360775e-002
      -1.3393037837755917e-001 -1.8599741308144951e-001
      5.3263594005819670e-001 -2.7661918281244707e-001
      7.3651575167850369e-002 -6.7963084342437430e-001
      -2.2281015661045103e-001 -3.1780653316472812e-001
      -1.5006729520790960e-001 1.5288121914048433e-001
      -3.6985008464392788e-001 -1.0031420093449870e+000
      -3.4111239548478922e-001 -1.9826075552462588e-001
      -2.7635423790640828e-001 -7.4383255911317692e-001
      6.4205701254625727e-002 1.0617920979768006e-001
      2.3466296276017695e-001 -8.1564065913228831e-002
      3.9035755617489293e-001 -5.2034579944402370e-001
      1.2585185862394037e+000 -3.2298929342829108e-001
      -3.3660948332423851e-001 -1.0339226460066528e+000
      -2.4447255233215481e-001 -5.4063981394856575e-001
      -5.3339649081410147e-003 8.6472075155468264e-001
      -2.4239961296153079e-001 -3.5864230677545444e-001
      -4.2708490930283005e-001 -1.0480774109147034e-001
      -1.2121034065697174e+000 -1.4306123363907869e-001
      -3.0703322723229325e-002 3.5281377156023780e-002
      -8.6314317770005811e-001 8.9075544156530895e-001
      -3.8625458173410371e-001 -1.6354864177350728e-002
      -1.3501238586313959e+000 1.2205516869802367e-001
      1.0970816474861651e-001 3.9639811547815879e-001
      1.8629217361995361e-002 -8.6461643680703165e-002
      5.7208111556108721e-002 2.6570959344461359e-003
      1.0111380186305144e-001 -6.9220249757905916e-001
      -2.4339530425851472e-001 -1.3262116752872610e-001
      -3.1206070169499311e-001 -1.3289099734880237e-002
      4.1819952760139095e-001 9.1777556621958256e-001
      -5.9013373235013600e-001 1.0419743121512193e-001
      -6.2813305696481480e-003 -2.4124284214942152e-001
      -7.0599009316249772e-001 3.7929977512802032e-001
      2.6883135260936952e-001 5.8816855706725346e-001
      1.4940409853141792e-001 -4.5658736790081582e-002
      7.9866783978368994e-002 -2.1009787374597202e-001
      -5.6699024581900445e-002 -1.2672770846900211e-001
      3.9920505046045617e-003 8.8704969188326543e-002
      7.2034695077040373e-003 5.0055797928161039e-001
      4.4785624236333962e-002 -2.6092093223017383e-002
      1.6160141379376647e-001 3.1453070506172753e-001
      1.1540864997745552e-001 1.7607267409269833e-001
      1.3460228300324975e+000 -1.7498114791894670e-001
      -2.4600117098420107e-001 -1.3724638019282118e-001
      -6.4104707383114301e-001 -1.9954383640358106e-001
      -1.7573086385930753e-001 -2.7044546703158001e-001
      9.3065586537830300e-002 -2.2803524225051564e-001
      5.9913288613984561e-001 1.5329490543882232e-001
      5.4009304167693750e-001 1.6057140555971502e-001
      1.4841226213349688e-003 -4.4744145336789698e-001
      5.6608569363061467e-002 8.0729923526477432e-001
      7.6343574290191937e-002 -1.9256663170984237e-002
      3.0911682946880431e-001 -4.0384740337819408e-001
      1.0662591466198279e-002 -1.3720767619622268e-001
      -1.2891505520163718e-001 2.7886374434891453e-001
      1.3583735177038819e-001 -7.7191493523408317e-002
      -2.4478588462187920e-001 -1.2872842890827621e-001
      -2.3926246153730973e-001 -6.4505458526216242e-001
      -2.5798237547961220e-002 1.2369853898116985e-001
      -2.0833487028543748e-001 1.1424743521696194e-001
      4.6122836842484760e-001 1.7830595069924360e-001
      -4.5451795633854697e-001 -3.6174793018196993e-003
      -2.0857801100038715e+000 -1.6069421440769865e-002
      1.3979926704153681e-001 -4.2793553744253654e-001
      -2.0446644377162651e-001 -9.2652765172415233e-002
      3.7170725215581807e-001 -4.2604349206442932e-002
      2.0083689556793344e-001 1.3713282318124294e+000
      1.1098310027697388e-002 -2.1802175972430149e+000
      -6.2258973045485375e-002 2.9057675962379176e-001
      4.2526997578443665e-001 1.6341103694370551e-001
      1.9658480384048524e-001 1.1559455304383183e-002
      -4.7753346676066888e-001 7.5158391010826428e-002
      -2.0176065619349273e+000 -2.3174255690727003e-004
      1.0440652044104877e-001 -1.3162999190170201e-002
      5.1979390944073382e-002 -2.5592478027909607e-002
      -2.0636934528826308e-002 -1.4945360341998976e-001
      -4.3140625877691064e-003 1.3766825333347095e+000
      -7.7199709423587559e-002 -5.0311590289652125e-002
      -2.6656332371812284e-002 7.3344483973238825e-002
      -6.3122967494474366e-002 2.1523427869279851e-002
      -6.7046127398975820e-003 -3.1296272976486850e-002
      -1.2697022782774148e-002 -4.8307572974034957e-002
      1.4822922815368755e-001 3.6320949470919094e-002
      -1.5792599363642648e-001 2.5255555174328387e-001
      -1.8067650879434731e-002 -5.1813662931046410e-002
      6.1639155233204582e-002 -1.0409223937086091e-001
      8.7200957611368160e-002 -9.2914981471029348e-002
      -3.1659143074834822e-001 -5.5197789251324281e-001
      -1.4542324872288995e-001 -6.6469615011666454e-003
      2.5405427993614194e-001 1.0827407237902387e-001
      3.7639670409616591e-002 6.1596287294873028e-002
      4.1600811814153232e-001 1.3852828726678562e-002
      1.9708458871978751e-001 -3.0428555709029075e-002
      1.8680214004531212e-001 -1.9609445123488756e-001
      3.0740205522336500e-001 5.0044476358216995e-002
      1.9175705696501311e-001 1.4265341065534021e-001
      9.4684190574126359e-002 4.0838295632275423e-001
      3.5623802486040003e-002 5.0978588186735889e-002
      -1.0123842238622723e-001 1.3649117487645943e-001
      3.2104544473431501e-002 -4.0092062309383614e-001
      3.2649598976139074e-002 1.3354528467923318e-001
      6.9478638421287875e-002 -8.1546200009810027e-002
      -1.6538888732471904e-001 -3.9556555890382886e-002
      -3.1135382006809445e-002 -8.1312717001884993e-001
      1.5718742914248762e-001 -4.1237520737202459e-002
      -2.5441203818074115e-001 -9.8752406174655166e-002
      1.4433922808495384e-001 -1.9067218600108343e-001
      -1.6196919922901745e-001 -4.0503866279629104e-002
      -1.2409329711601647e-001 4.6532157916481448e-001
      7.1261202334596652e-001 3.9397644120152014e-001
      2.4909212811235957e-002 -1.5781573756999259e-001
      2.1096107462411298e-001 1.4856641482459082e-002
      2.9488580916401073e-002 -3.8363763340690837e-001
      -2.8260587940693765e-001 5.6200342542348972e-002
      2.8901890582119605e-001 6.7989163603058900e-002
      -4.2393736577180798e-002 -3.1308883402336465e-002
      4.5012545511581892e-001 -6.1133123688787983e-002
      -9.7075307993653839e-002 2.5231581251752716e-001
      4.1584174495044174e-003 2.5565521776352079e-001
      3.3103194215663034e-001 -3.0464033532109364e-001
      -2.4776017706515710e-001 1.1742942050017846e-001
      -3.0696151520263543e-001 -1.2471536015476027e-001
      -3.8255589405927293e-001 -8.4876579831576121e-002
      -7.6978341458641675e-001 -1.1330484140835650e-001
      6.1654245779671835e-001 1.1060538797376543e-001
      -7.4494914262649800e-002 6.3179048213237854e-001
      -1.5110697716326002e-001 1.8117232418388332e-001
      -3.4886215211639510e-001 -1.6615956456317540e-001
      -1.1190498901555429e-001 -8.0617353939340178e-002
      -2.8873907829739615e-001 3.1705707219065943e-001
      -3.7526458667618390e-001 1.3040446209591261e-001
      -3.4016390207179775e-001 9.1065240393212992e-003
      8.0425115770408562e-001 -2.1840339057724843e-002
      -2.2843787215456927e-002 -4.2781471314649655e-001
      -1.2465386203685396e+000 -3.9559132610933356e-002
      3.6506768264575751e-001 2.2451813830537343e-001
      -1.6915116929190965e-001 7.1717029133954846e-001
      1.1070389961972970e-002 -1.5260870323356210e-001
      -2.9925973373156822e-001 -6.1502028053241259e-002
      3.0571304368299951e-001 6.0618108068577625e-001
      -1.0085818496113282e-001 -9.6687268827826620e-002
      -6.3259631244888981e-002 5.7022603503054103e-001
      -2.2077105321606799e-001 -6.3066954794727748e-001
      3.7082095569993201e-001 2.0290869772187900e-001
      -4.8490589638629150e-001 -1.3252301187010347e+000
      -3.5599043834474077e-002 -1.3112510294239155e-001
      1.7281818096569207e-001 -5.5162936643705252e-001
      2.1255341832365118e-001 -5.5961066719586769e-002
      -9.3341071975307471e-002 -2.4601926464017726e-001
      -2.4122502363249546e-002 -1.5191636160752789e-002
      7.5303832709745042e-002 -1.1104474405434281e-001
      5.1347667938976799e-002 -4.8751009448289121e-004
      -6.2884788657232149e-001 -3.6194180507593299e-001
      2.6291704194727328e-001 -6.3595062827333682e-002
      -2.5555009630650322e-001 1.1116797358372606e-001
      5.7020476635763095e-001 5.3867667476688724e-003
      1.3059348226456854e-001 -8.9248927095743710e-002
      3.2521615857874786e-001 -6.4221721792674669e-001
      1.3261125717297781e-001 3.7916293910478197e-002
      2.2170255470573388e-001 3.6084590472587157e-002
      -8.8023644934766776e-002 -1.8491033524380129e-001
      -4.8986962789075833e-001 1.7359278040518747e-002
      -2.1033896937745857e+000 -1.4378517622939416e-001
      7.8111164706987896e-002 -7.6190206320767229e-002
      -1.3181134718260307e-001 6.6433106733847207e-003
      -4.0781279905923040e-001 -5.5129871079988291e-001
      2.3485775740740088e-002 1.3874018658799954e+000
      -3.8563278582875837e-002 -2.8854314892827846e+000
      1.6894619488315939e-002 3.9724084460903947e-001
      1.9065363606246158e-001 -5.2923459363139425e-001
      2.3366655245106904e-002 7.6593054900620225e-002
      -4.8690202000556049e-001 5.3697672237884284e-002
      -1.3179396071844103e+000 -3.0832156764008235e-002
      8.9120233856081726e-002 -1.5558362903979885e-002
      4.6784722694859109e-002 5.7671012854805873e-002
      -1.0347415166918488e-002 -2.8045682435137298e-001
      -4.5002427961323484e-002 1.2395509279124652e+000
      -2.2252427503091293e-001 1.5311837586536034e-001
      -3.2966164779334894e-002 3.9509239677201935e-002
      -3.8190184924059893e-002 -1.4611766056633918e-001
      3.5461984559795733e-002 -7.0190030916176080e-002
      -7.6749045616173045e-002 1.5800536120575290e-002
      2.6928697569655019e-001 -6.7275883022497235e-002
      5.1917183905685355e-003 1.4212593952976002e-001
      9.4194515501584974e-002 -6.9275024609704958e-002
      -9.3357879800244931e-002 2.5505152043019379e-002
      2.9522248005126754e-002 1.4677659724556952e-001
      1.1584168218277181e-001 -5.7341171051365558e-001
      2.5379592495837072e-002 9.0775467520417083e-002
      3.3193266139063077e-001 1.0213707507294667e-001
      1.4319180452972634e-002 -1.1427511909027212e-002
      1.6030018477172803e-001 2.1049822956209541e-002
      -1.6761848791560052e-001 6.3169113124817728e-003
      1.0255951421578662e-001 -4.5463450511558312e-002
      -6.5706679215805297e-001 1.1003328767499683e-001
      -2.1143217791302249e-001 1.7235143934158886e-001
      1.5564260096384425e-001 5.9680942012896886e-002
      -9.1686229945019737e-002 -1.3201184171448896e-001
      1.7010532235278937e-002 1.8760819629271855e-001
      1.1419866520906269e-001 7.0871924267904673e-001
      5.9778580172719503e-002 2.2470973067539854e-002
      1.0045375540222228e-001 -6.7688215354362175e-002
      -7.4527574154462894e-001 5.3073044872081532e-002
      4.4966977668133533e-005 1.0486989849471104e+000
      8.3849916735408009e-002 1.5716727064942373e-001
      2.2063022701471445e-002 -9.3528509004608823e-002
      8.4273809935540067e-002 1.0434130270760701e-001
      5.6369444537463745e-002 -1.6441284529260480e-001
      -5.0583388660984288e-002 3.5071576762440565e-001
      1.0557620725921744e-001 2.9765083421358252e-002
      6.7030797507662346e-002 -1.7006798932277867e-001
      1.7051515854835914e-001 1.0072758309784718e-001
      2.2611761509591841e-001 1.6030395386515270e-001
      -1.0724615016164957e-001 -7.0624684946170649e-002
      1.3933524313320672e-001 1.2140806575010014e-001
      -2.9876623244085715e-001 1.0702333691320522e-001
      -6.9924926422418286e-003 6.8705629389105460e-001
      1.3958255907110395e+000 2.8589130753201136e-001
      9.7499684078172622e-001 -4.6698482276297019e-002
      -3.1545190265012665e-002 -1.9132363669705363e-001
      -4.3226506242930351e-001 -5.7299250470373181e-002
      9.3051292344071640e-002 -5.4834546014797148e-002
      1.2112138031022615e-001 2.0128027522054381e-001
      7.4925015652639593e-002 2.8643405053784887e-001
      7.6913813414905996e-001 -5.4427348539957163e-002
      2.3197004289611090e-001 1.1193223758919030e-002
      -5.2936411645934500e-001 3.7205373890924531e-001
      4.4156142620444531e-002 4.9908824244417067e-002
      -4.6993545201668607e-001 -7.3370086281116520e-002
      -1.3412544436460616e-001 -5.7823860048729281e-001
      -3.1660849472584490e-001 1.4275786957598180e-001
      -4.8313010203943085e-001 7.1253578444622012e-001
      1.1467194368510227e+000 -3.5538021896082211e-002
      2.6990645390771772e-001 -2.2386626486133226e-001
      1.5213481705756587e-001 -2.3195256445801395e+000
      -2.9371226806585143e-002 -1.8681661556950107e+000
      -1.8154183221697590e-001 4.1616081349401812e-002
      1.1640882322784756e+000 -3.6331251513517088e-001
      -6.2676248255191103e-001 -8.8247375265402528e-001
      2.8660544052109909e-003 -9.3564660041851808e-003
      -1.7108892270275358e-002 -6.0563580917484883e-001
      1.0808340878430493e-001 4.5806034607631740e-001
      -6.7304267442256238e-001 -1.7347421490702603e-001
      7.6304069170993549e-001 4.6331338757158508e-001
      -3.1509635501444894e-001 -6.7498976279465839e-001
      -2.5715614826206568e-001 -3.1246967076993787e-001
      5.2247508749071903e-001 -1.0150315306098202e-001
      1.1824284181228563e-001 -1.1175283659275874e-001
      -1.6693766861781650e-001 -6.1442692751198213e-001
      -1.5398598372250433e-001 3.5504469126180112e-002
      6.9820054652640143e-002 -1.1769362451236591e-001
      -1.7763330356791181e-002 -5.3330370167491620e-002
      -4.3434536876222063e-001 2.5731435220201065e-001
      3.5578088227528359e-001 3.2884588642707858e-002
      -2.3714295881853714e-001 -2.7663161231549976e-001
      -3.7049908888790128e-001 -3.9412055247141295e-002
      -1.8951154776337029e-001 -8.2689208658180788e-002
      5.9794345425016798e-002 -2.1965475649347583e+000
      -3.1562373214160562e-002 -4.8470802462251994e-002
      1.0796873102413930e-001 -7.2510483840541817e-002
      2.0186116992611483e-001 -2.4909415987597903e-002
      -4.8366906521990366e-001 1.4622550621397718e-002
      -1.9232138372472798e+000 9.4292211852322144e-002
      2.4922329812052842e-002 1.4718288670234798e+000
      9.0427636733992497e-002 7.8161456418446643e-002
      1.0614830794454949e-001 -1.7691251341548098e-001
      1.3802292783795659e-002 1.3602340783797366e+000
      -5.0433935805381747e-002 -1.1903450116213350e+000
      7.4626004656173098e-002 2.5476037633877685e-001
      4.3902166565344031e-001 9.7298293766105076e-002
      1.0191814073157082e-001 3.7933930522073472e-002
      -4.9475599726743891e-001 -6.7206885178124065e-002
      -2.1729763012851824e+000 -6.4181632958307769e-002
      1.4688865265259488e-001 -1.1262791383951402e-001
      1.3052577305170687e-001 -9.5535667406695973e-002
      -2.2992908633416625e-001 -5.3097553391701288e-002
      -7.2808859027499812e-002 1.5370302695517952e+000
      5.6395678663500343e-002 -2.6324062683624395e-002
      -5.1788377878378658e-002 -5.1120524679218710e-002
      -1.0559956900459836e-003 -2.9636690456864634e-001
      -5.3066323405090321e-002 -1.3709968496059450e-003
      1.9802843003185813e-002 -1.6357884873532933e-002
      9.1903431609946629e-002 -9.5574987455477489e-002
      -6.6585953475360483e-003 -1.5745692198053182e-001
      2.6797990940105770e-001 -8.1313368730775104e-002
      4.8725689465644900e-002 2.2968673234311468e-002
      -6.6903974290067215e-003 -1.5118235507880548e-001
      5.1107564958395899e-002 -1.3771666614316713e+000
      -7.1203112215820381e-003 1.6503272313105363e-001
      3.2121887152924422e-001 -1.7131820089022115e-001
      5.1002711967936742e-003 2.0130181648546538e-001
      -1.5407284954379083e-001 1.5906782258750896e-001
      -1.2815366430452227e-001 4.2848731261730007e-002
      -6.2481784106403475e-002 6.1115983356833110e-002
      -3.3772980372252281e-001 -1.0533123461890723e-001
      1.3868296613355596e-001 -9.1851249201104941e-003
      2.7717464853060914e-002 1.3041367491377446e-002
      4.6317274184533991e-002 -2.9320654016356675e-002
      6.6313068605830444e-002 1.8781488155776846e-001
      8.3554090120704971e-002 -1.4783888305877529e-001
      4.0932226201504052e-002 3.9322848881025586e-002
      1.3247238194766572e-001 -6.1335591217470051e-002
      -4.5590525911167364e-002 2.4158998019841869e-002
      -8.3677493790177596e-002 4.2593232652103646e-001
      -3.1795294156176485e-001 2.0613831780336261e-001
      -5.0750752001145255e-004 6.4921487849621901e-002
      1.3160963043881460e-001 5.6013360814016290e-002
      -1.0025052980786113e-001 1.3596982711356956e-001
      1.4764445264601742e-001 2.8085457710669115e-001
      1.7507249133446726e-001 1.3156207376125495e-001
      1.8950549564612146e-001 4.2251384324645293e-002
      1.5403183885019439e-001 -3.0723788394248458e-001
      2.8657673549090745e-001 2.1894743769607680e-001
      -2.6122359183873914e-002 1.1969249520306742e-001
      -1.8122928404969019e-001 1.7259233193386481e-001
      -3.1217396687642346e-001 -7.9396080160192006e-002
      -1.7393774348555452e-001 7.6286841942127281e-001
      6.0090956817505259e-002 4.6912955849357690e-001
      1.6562946989865224e-001 -4.4412088417066864e-003
      6.3092082100805622e-002 2.8165698414278112e-001
      -2.4175050955045027e-001 -3.4054018773216155e-001
      -7.7716363981721534e-002 7.4521812748353441e-002
      1.9534045497484815e+000 -4.4301339254837319e-001
      -9.0598853825353307e-002 1.8233997428256879e-001
      1.5064757127742770e-001 -8.9228831370564954e-001
      3.8726852005876222e-001 -8.1138183753909521e-002
      -3.6008384143071287e-001 2.3654187035431051e-001
      -1.0466483081539053e+000 1.3893682518838278e-003
      -3.0002591335756018e-001 -9.9920160848612410e-002
      -8.3844747288303365e-002 -4.7776513268161647e-001
      -4.5426654885609152e-002 -1.7872478591590091e-001
      5.9770780052751347e-002 6.1028873332721700e-001
      1.3518170785814621e-001 -1.3621175285280129e-001
      -6.5192615588616734e-002 -1.9262355063915126e-001
      8.3818172571517524e-002 -4.7225331455788055e-001
      9.8628260698856388e-003 -1.5380196138705482e-001
      -8.6804595300403284e-002 1.0310133271467600e-001
      -5.1907241760413136e-001 -2.8667926435494578e-001
      -2.5328454134598888e-001 -3.1172995011391263e-001
      -2.7769885777463360e-001 -6.5998475391085076e-001
      6.2867270881083270e-001 -4.6513561140920245e-001
      1.5711531255161371e-001 2.6140507047351785e-001
      -5.4806646278673421e-001 6.8335382864159733e-001
      -2.8842051465538959e-001 2.2475255645732517e-001
      2.3459732819114529e-001 -2.9294348417006788e-001
      -5.1432635803782867e-001 -4.5182416961170430e-001
      3.7869268413057466e-001 2.6494446011227052e-001
      1.2594319513922445e-001 4.2275018513766444e-002
      -1.9597181920583978e-001 -1.9572775632388167e-001
      -2.2224147101412189e-001 -2.6840938001051445e-002
      9.9632544191550571e-002 2.4264824687213378e-004
      -9.3067823153073145e-002 5.1090730944171703e-001
      3.0763716829738358e-002 5.2404805707253632e-001
      1.9531496526922798e-001 2.5507309272122958e-001
      -6.3495648522244139e-002 -2.6912458656551003e-001
      -1.3719516504995564e+000 -5.5236502209518090e-002
      -1.5504056753401529e-001 -5.5069182916622617e-001
      1.8479961868862679e-001 -2.1705822241593511e+000
      -1.2250598239444972e-002 6.1958507998869802e-002
      3.7530017164821912e-002 -9.5511956626287864e-002
      2.0687732889374844e-001 -2.4246812796301365e-002
      -2.4931128053482587e-001 9.1795111041915275e-002
      -5.4536041808498814e-001 7.7698780184491972e-002
      4.3292340745767391e-002 1.2130389023985857e+000
      2.4792004872531534e-001 -2.4164846647095728e-001
      3.0690656602068317e-001 -1.4423663459049482e-001
      -8.4214677655579412e-002 1.3846023588148109e+000
      1.0726265016783325e-001 -2.1724503190394433e+000
      -4.5977397602858711e-002 2.9972667913741563e-001
      7.1996138384183939e-001 2.8032578746229031e-001
      -2.1680607973628108e-001 -4.8768894083274242e-002
      -4.6340126653004415e-001 -2.3195874445768198e-002
      -1.0250253478939315e+000 -4.2771591269296423e-002
      1.4582379599510575e-001 -2.4178498012202794e-002
      -1.2434211616450935e-001 -4.1423221067907620e-002
      -1.9151022180934479e-002 -4.5413713792735344e-002
      -4.2322953369133533e-002 1.2709021808572227e+000
      -7.2571269038341352e-002 -3.0927580190267694e-002
      -6.6214196694269048e-002 -1.3942304725639776e-001
      9.3564399884083063e-002 -3.0045506598518621e-004
      -2.1892963861213199e-002 -8.9997916435863912e-002
      8.1169865559368864e-003 3.1367759361125944e-002
      -2.8972816073163599e-002 8.0731933370512526e-003
      -1.9546449776793637e-001 5.4052276517118421e-002
      -9.1648755876810706e-002 2.4901068291904766e-002
      2.1910729769407136e-002 -4.2141477775490613e-002
      -2.8026345492195529e-002 -9.0597407832972890e-002
      -1.7742761913601293e-001 -1.5354336245602316e+000
      -4.6217161591430321e-002 -5.9743329149967439e-002
      -6.8547640012805194e-002 7.9427140655104575e-002
      1.2268705536295705e-002 -1.1142656707159283e-001
      -1.4267880079395073e-001 -2.1874863966996821e-001
      -1.7153342230068777e-001 3.7080015353808199e-002
      -2.9793330660455314e-001 -7.0705371191513489e-002
      2.8765125384511808e-001 1.0883505050307728e-001
      1.2139650533826842e-001 1.2409230727910150e-001
      -2.3523116433267835e-001 6.2305495737107008e-001
      -5.5307303373831739e-002 -3.6912567259385236e-002
      9.4526200844222127e-002 1.0181557849808220e-001
      1.9959206639730769e-002 5.2042729326442716e-001
      4.5058245436139691e-002 2.1628638303839952e-003
      1.0443887170458505e-001 -4.0740224235442274e-001
      3.1446801805796715e-001 7.4913893047377320e-002
      -2.5552621985042612e-001 -8.9959937522596234e-001
      3.0003124381631489e-002 9.8357132482680312e-002
      1.9307480593154930e-001 3.3902331259150313e-002
      -2.1145564355778157e-001 2.4151443899464120e-001
      -7.6823614547736938e-002 3.0130742342035839e-002
      8.9286965734954732e-002 -2.9194946103511657e-002
      -1.4515465807105746e-001 1.8091121815330746e-001
      3.2412006711746411e-001 2.3410026376963328e-001
      1.7101285511541670e-001 -8.0328763464473740e-001
      2.2666306423633931e-001 6.3978320967978272e-002
      -2.0961327127998412e-002 -3.4904384417041173e-001
      -4.2545894708713972e-001 1.0601262718849713e-001
      5.3551687959506565e-002 5.7173541484627211e-001
      4.0943490121565455e-003 9.9575387013159278e-001
      -1.2872647333361809e+000 -2.3647806588585679e-001
      1.3864550262600664e-001 -1.5486721200283637e-001
      -5.8131939421628132e-001 3.5013460791802509e-001
      7.3976078511351118e-001 2.2018466712791723e-001
      -2.9720154088027353e-003 5.3281721919889335e-001
      6.0791689543115579e-001 -1.3070352718865511e-001
      -1.3522261602899252e-001 2.6787702867084994e-002
      6.7869834918205557e-002 4.4562267547645329e-001
      1.1947417218854903e+000 -1.2775525011964706e-001
      3.3297293925157340e-001 -1.0653187373394271e+000
      -4.6568886540678062e-001 -1.1001995745744553e-001
      3.4633609312420141e-002 -3.7459339383018753e-001
      2.1619809179422515e-002 -6.2399930576072724e-002
      3.4292603628421403e-001 1.6466380929998514e-001
      -5.9803602588282989e-002 1.7955746836810119e-001
      -2.9274492204979385e-001 -4.9673854117939654e-002
      1.9828475763450895e-001 -7.7611741371026099e-001
      1.7038256288492417e+000 2.6738534599900143e-001
      4.0776840693763478e-001 -7.5666850555694540e-002
      1.1109329582288552e+000 1.7851395323844349e-001
      1.1963916055515476e-001 -7.3482627633295911e-002
      -1.2146387009484839e-001 -5.8977235144155177e-002
      1.5399565552563901e-001 -8.4830539935961413e-001
      1.3326133694509762e-001 3.3576813900685737e-001
      -6.7080998039910966e-002 2.7129266621541925e-001
      2.1007003401375474e-001 5.7424329457628287e-001
      -6.9599268171851386e-002 -1.3489449649544545e+000
      2.5538868613818455e-001 4.0940909357302835e-001
      7.1543868136651881e-002 -2.0065618236613036e-001
      2.0519185067969159e-001 -1.1575572709478960e-001
      5.5004614536027985e-001 -2.7658707611598748e-001
      -3.1068547888524294e-002 1.1904270879247353e-001
      5.9202912073064842e-002 7.6753248378298042e-002
      -4.7800539815248712e-002 1.0228927000736245e+000
      -2.1540483000128155e-001 5.1776995255825997e-001
      3.1443315042878783e-001 1.1736768373234567e-001
      -9.0317914651281569e-002 -5.3398501763467687e-001
      -1.6793671741905827e-001 -2.3076685558049223e-001
      -7.4716296191749376e-001 -9.9947736601210299e-002
      1.8161972171182983e-002 7.0872213902160502e-002
      1.5341403323173294e-001 -1.7297438708741038e+000
      1.5030385236996159e-002 3.2914145315159668e-002
      -3.2062277100746051e-001 -4.1413364102803485e-001
      -8.6160867948254991e-002 -6.3628676315927672e-003
      -1.6097105651808608e-001 -6.9035798432605447e-002
      -3.6498520404434492e-001 7.7079767048092898e-002
      -2.3360482377011569e+000 -8.4135596131328746e-002
      2.0240077520215760e-001 3.9964792736466914e-002
      1.0704203546037841e-001 -1.6814441036043073e-001
      -1.0470445107417511e-001 1.2768410480342540e+000
      -2.3736457563616678e-001 2.0523824520735984e-001
      -4.9281019293131230e-002 3.1836582212059948e-002
      6.0950188065257527e-001 1.1705798627642788e-002
      2.9280969808076891e-002 2.0190874927079939e-003
      -6.8821415835048347e-002 5.7689985515392485e-002
      1.7664769203672803e-001 8.7156078133452927e-002
      -2.0428368729392581e+000 6.5012238084668938e-001
      1.9297103821938455e-001 2.9546685277330798e-001
      9.3366812793177267e-002 -8.3329763378188967e-002
      -3.8580924121021952e-002 1.2751871424436421e+000
      -8.1533912436405703e-002 -5.1750645658679331e-002
      -1.4218637169205472e-001 -1.6950299303372326e-002
      -2.9382311988450108e-002 3.2290734985163279e-002
      -4.6509992787308933e-002 -3.4440651610133224e-002
      -2.9598604663884722e-002 1.4610105276753304e-002
      8.5106435615175086e-002 9.9771512925267924e-004
      2.8375021210737251e-002 1.2721716193545840e-001
      4.0669794921277275e-003 2.8728413639380800e-002
      -4.7531868787198853e-002 -1.1653186527331617e-002
      -1.0899689382132477e-002 -1.5957347744499392e-001
      9.0399665487148917e-001 -9.3543278754044401e-001
      7.9772429066704523e-002 -1.2553849586159829e-001
      -2.0221976026075036e-001 1.8307039347965381e-001
      3.9128742390248293e-002 -5.6878061562167279e-002
      4.5713119918647238e-002 -2.1910912832575896e-001
      -5.6861154094068145e-001 1.5637373507935474e-002
      -4.1904462731095055e-001 1.0721280929470027e-001
      7.0947754690035350e-002 2.8463726328329253e-001
      8.8254203094956477e-002 -1.5257323951383972e-001
      -7.1709747821225953e-002 5.5546685140443175e-001
      2.2807193169634396e-001 9.1355652344114879e-001
      1.1467193833130052e-002 2.4703233251563833e-001
      8.1021693093040970e-002 1.5194873554031854e-001
      -1.7387891029148161e-001 -1.0997904426243628e-001
      2.5229977239548396e-001 -1.9865167779211806e-001
      -2.7756602030324633e-002 2.0713834877180662e-001
      1.8303780171987621e-002 -1.4365136938171152e-001
      1.1732127054851149e-001 7.0987406156485054e-003
      1.5878686669840461e-001 -3.4502153490246829e-001
      -2.4394310909941541e-001 1.0337762154478626e-001
      -2.2574981791623394e-001 2.3635859246546626e-001
      2.2668502111215663e-001 -2.7554203760652379e-001
      -7.8364023316994402e-001 -2.7770043682949297e-001
      -5.7424854767786321e-004 -2.4105657970031602e-001
      2.8470955072847437e-001 6.9938672124556095e-002
      -2.8187707140748620e-002 3.3096580650380729e-002
      -1.3817437501953866e-001 -2.0635872025774860e-001
      -1.1151260394809763e+000 7.9709861253027980e-002
      5.7686518295992484e-001 -6.0802163920475538e-001
      -2.6908471149562928e-002 5.1824964465621029e-002
      -1.1040716272113316e+000 -1.3122789114424374e-001
      2.9583924073628798e-001 4.0180881167685745e-001
      1.0359643411883902e-001 -1.4108863547027972e-001
      7.9707651930494650e-001 7.3690558613828039e-001
      -1.0881957842257633e-002 2.9119179647296456e-001
      -8.3523067196683520e-001 -9.4880100202658635e-003
      4.1988880509167642e-001 5.3384422354408123e-001
      -2.3367630314749036e-001 1.5152501399555032e-001
      2.2774879569817738e-001 -1.8935214678673437e-001
      8.3484359743850178e-001 -6.0182809024221595e-001
      3.3143973531271065e-001 -4.4056595362768604e-002
      1.1055082204893704e-001 -1.8465894842768518e-001
      4.6572527381808809e-002 -1.1477458026190733e-002
      2.6674560419986099e-001 2.5670984251074325e-001
      6.8712484893757343e-003 4.4901140857238631e-001
      -1.5375065294096890e+000 -8.1761155436735580e-002
      3.5077084013883342e-001 -1.1610568934226356e-001
      6.0890877604315363e-001 9.9363724246711832e-002
      -4.8739045204341719e-001 -4.7308585373113138e-002
      3.3121422721790937e-002 2.8637079702766313e-002
      8.7705530003139009e-001 -1.6559205086859205e-001
      1.0098505359459206e-001 -6.4424958304461738e-002
      -2.9802676060225386e-001 1.1876078322157767e-001
      3.2822599290240465e-002 5.9110807624665518e-001
      5.5356396774102520e-002 1.0205270825635164e-001
      4.2649305334667492e-001 1.5386412054124157e-001
      -8.5403817257019302e-002 2.0956905034290416e-001
      4.7308110544757104e-001 8.1089156455998057e-001
      -4.2175556897309047e-001 -2.3586348870276921e-001
      -2.5462747981926598e-001 -1.4827526707608699e-001
      2.8602669236338785e-001 9.9523832941299989e-002
      1.0131912508148630e-001 6.2631078043225027e-002
      7.0639255879397150e-002 2.0132613872879637e-001
      -6.7439051153140181e-002 8.5376939668711141e-002
      9.3104153865647493e-002 -4.7512538048934544e-002
      5.8922900251121957e-001 2.3511052775644084e-001
      -3.4283433002688296e-001 -4.1837998295494022e-001
      2.6833286955434993e-001 -7.0460521657315103e-002
      -3.5134102729235658e-002 -1.2631919421968582e-001
      -2.4571618887110125e-001 -1.8916231638101655e-001
      6.9087694331301974e-001 -5.2661781964559584e-001
      -2.9157229899673745e-003 2.1270510037820677e-002
      -3.7354168508442065e-001 9.2281731190167970e-002
      -1.4866699569521594e-001 -2.6477577838553243e-002
      -4.5840262751254329e-001 -3.0208198870893783e-002
      -8.9526815875352897e-002 1.0587749609525601e-001
      -3.4234042824338644e+000 9.9355599540852046e-002
      5.6483745398303434e-002 3.7002704310711382e-001
      5.6317660295372884e-001 -1.2127146780841110e-001
      -3.6883575989813448e-002 1.2957092171429032e+000
      -1.0736374293484734e-001 1.4668404221625322e-001
      6.2777474133588092e-003 1.0448139745181391e-001
      7.9185214461337472e-001 7.0970785617884946e-002
      7.8911285601220307e-002 -1.8783805702158953e-002
      1.2109910998279683e-002 7.1062019700895582e-002
      1.2421835623322736e-001 1.0448773486043319e-003
      -1.1952950441861623e+000 9.8670779798840613e-001
      -4.7542285749511204e-001 1.7431463959426657e-001
      4.4969836651477149e-002 -2.5334001141658519e-001
      -4.7507853601477544e-002 4.9155597245093957e-001
      4.0452282148796891e-002 7.3364266277919574e-004
      -7.1853977363358454e-002 -2.6094441601381713e-001
      4.0436055653866126e-002 -1.7188594109512326e-001
      3.6470804777672922e-002 -5.0541501794406786e-002
      -9.8462406206018940e-002 -6.5501638263017359e-002
      1.5839742017960493e-001 3.1246324692769355e-002
      1.0015952739467492e-002 -3.1571892518653666e-001
      -1.0624630307472165e-002 3.5428194144145074e-002
      -4.9321717076511867e-002 1.6634032986295948e-002
      -3.0285389493263509e-003 1.0260584787921725e-001
      -2.5436146716708874e-001 3.0809588343623667e-001
      -9.5514384060736923e-002 6.1847578827889979e-002
      -9.7746245467225823e-002 3.4598391069740919e-001
      4.0135090568543356e-002 -2.4063047309203095e-001
      -2.1522609564496217e-001 -3.7019049950009000e-002
      1.0391966408376024e-001 5.7881612854671582e-002
      1.0118197514322945e-001 4.5320706218086770e-001
      -1.3496076381581490e-001 1.6318375605717417e-001
      6.7046366436218585e-002 -3.8185504187638941e-002
      3.4458441718191662e-001 1.2451282414095456e-001
      -7.6901735407754612e-001 5.9044926773467576e-001
      -1.3787160463656373e-001 1.3693679350092436e-001
      6.0847792255017949e-002 1.3871600463487779e-001
      -1.0095356058829326e-001 -3.5861419223089014e-001
      1.7067512680675825e-001 4.8204499698739051e-001
      1.4200095301707874e-001 -5.2313722105752851e-002
      3.1952094813019616e-001 3.2231173265924007e-001
      -6.5520014353414580e-001 3.9863187588494914e-002
      6.1904191651202212e-001 -6.0113893002997398e-001
      7.3308609600266983e-001 -1.5709205382915115e-001
      -2.0872866964877432e-002 -1.7395306778491239e-002
      -6.6080607384234036e-001 -7.8248064789217059e-002
      -6.3508632429345258e-001 -4.3304262002070509e-001
      -2.7849507672091645e-001 -1.0219563557428255e+000
      5.5652561158039382e-001 1.3262929449708502e-001
      -5.7078707861988862e-002 1.1783017476020816e-001
      4.3373301511101181e-001 9.6302889433127800e-002
      -6.4905686412734398e-001 1.2039360317265801e-002
      4.8190036658298030e-001 -9.1060250049865099e-001
      7.8196015589109269e-001 -1.1340965693155542e+000
      8.4453521202106543e-002 8.0116554140857651e-002
      1.9029260190446065e-001 -2.5431090520345984e-001
      3.9393979218185396e-002 -3.7535255628635961e-001
      -1.8828178322497793e-001 -8.4282453796828682e-001
      -7.6745670404271077e-002 -1.0837024831559479e+000
      9.3198789734733431e-002 -1.4463596592283229e-001
      2.1261946370011814e-001 6.3239278049332701e-002
      1.2999712348791084e-001 -7.3276465647285693e-001
      -9.1489948054808465e-002 -3.2605371123871163e-001
      -1.7820954222206496e-002 5.5792150117597542e-002
      9.3210058018708519e-002 -5.9799742535023549e-002
      1.4640659246206479e-002 1.8708541452542818e-001
      4.1550253334175238e-002 -1.3605448430716829e-001
      2.0775898896922032e-001 -3.3910844461295253e-001
      -4.1349762619094782e-001 -2.9255560625306992e-001
      -1.4555614806946948e-001 -4.6468028912066378e-001
      -1.3556692159243205e-001 -1.5810773600318770e-001
      1.1506400467148452e-001 -5.4799927476876198e-001
      -7.4538527187245840e-001 3.3329846292389320e-001
      2.5088129885071392e-001 2.0958878879658943e-001
      4.1321745222566031e-001 -2.2295759409563023e-001
      1.6892530625136848e-001 2.9402118584256232e-001
      -5.3170375806767289e-001 1.9015398073333440e+000
      -3.3357486320694807e-001 -7.8617301777146015e-002
      -4.3908431667853916e-002 4.5910270555518516e-002
      7.1696824367168982e-002 1.0105031212255674e-002
      -2.8726457935717914e-001 3.4993723705404156e-001
      3.0143079708698478e-001 2.2663233662439680e-001
      -1.2515908103955242e-001 2.0603336125543027e-002
      -6.2776920085691593e-002 -8.7838083916433829e-002
      -1.8439937397875103e-001 7.4610803257930153e-002
      3.2538343125385158e-002 -4.8263206762069751e-002
      -1.7890694124555459e-001 1.1288418413074128e+000
      -1.3368418006351723e-001 -4.8661488592878460e-001
      -1.7447003307249920e-001 -7.4892718172684162e-004
      2.7644336141487241e-001 -1.5433246146424558e-002
      -1.2739342558046532e-001 2.4386718562299597e-001
      8.4555064850514972e-001 1.1880846029659767e-001
      3.1353037516042487e-001 -3.7896927500950814e-003
      9.4307178926509430e-002 -1.0082186848574306e+000
      -5.1164421472534105e-001 6.5144526777807368e-002
      2.2473072771342178e-002 -3.4978262077944189e-002
      2.6435291357274748e-001 4.3829116881840144e-002
      1.5421790241260497e-001 -1.5680151552062252e-001
      -4.7546241722000077e-001 -1.6130559230069997e-002
      1.6933364665715830e-001 1.3324837725786878e-001
      -2.3467593405728082e+000 6.3327439679649999e-001
      -2.0491815116832724e-002 6.3954451875166107e-001
      1.0943329213817881e-003 -2.5594833722698068e-001
      -3.5985284670316517e-002 1.2519427441871527e+000
      1.1904516508460946e-003 4.5061811676025759e-001
      -5.1709617516437607e-002 1.2305788586776813e-001
      8.9888919666327893e-001 1.1086562053791559e-001
      4.9097077187459509e-002 -7.1094867793736638e-002
      -6.5707816570084829e-002 -5.9994087432105624e-002
      2.3038186135644106e-001 -2.4364421428656996e-001
      -1.2603781624900439e+000 1.7604904686577394e+000
      2.9869806813053235e-001 -2.2093938643545671e-001
      2.6875675762075707e-001 -1.4710704992533666e-001
      -3.2329708964322309e-003 1.3626009529539849e+000
      -1.4219053923862857e-001 -2.3407937174240820e-002
      -4.8818480260179098e-002 -1.0437317963317405e-001
      7.2776335971271061e-002 -3.2247331402055873e-001
      7.6139431053030976e-002 2.5206448324089237e-001
      4.3399385006298238e-003 3.3433985134557573e-002
      -1.2163578609572921e-002 8.6228072982316231e-003
      -2.3537788646808461e-002 -2.6045014090794485e-002
      -5.5983063924749173e-002 6.9877870111854964e-002
      4.7262818471777511e-002 -4.0552058525283718e-003
      -4.0368864161366480e-002 -4.1653101610371640e-002
      8.2869862608094913e-001 2.8458351973358891e+000
      2.3318029638962287e-001 1.4450446398691535e-001
      5.0042633399271612e-002 -1.4355905702953933e-001
      8.2333212330528011e-003 -8.3160423405846909e-002
      -2.4001675862002598e-002 1.2946314279954016e-001
      1.4485103715612427e-001 -3.8218045916824296e-002
      1.2928590815646335e-001 1.1631227516198275e-001
      6.7328357661805963e-002 -9.9400250420102254e-002
      8.0490286932592914e-002 -1.5638389741802217e-001
      -5.3770072120769861e-002 1.1565075739816436e-001
      -3.1956515946204239e-001 2.7231073896627228e-001
      -7.9827540755338031e-002 8.7912103133100300e-002
      1.0094416096034671e-001 -4.0841443594531285e-001
      -1.5448022184402678e-002 -1.5420857365401813e-001
      6.9420326114173814e-002 1.7008059897474703e-001
      1.2992750734098463e-001 -5.7232168528512616e-003
      2.3509830447613639e-001 1.2914473397024289e+000
      -2.4508936900387363e-001 7.1412594874221275e-002
      3.3574167287096790e-001 -4.0899835529739825e-001
      -1.4509636815301012e-002 -2.9677888941745272e-002
      -2.7865399266810850e-002 -5.0380392156394449e-003
      -1.9719788164862739e-001 -5.6067827961154205e-002
      -1.1642639754870365e-001 -1.1038659947441623e-001
      9.7040001226865139e-002 -2.1256355601774585e-001
      3.2836030610216915e-001 -3.7599491966675380e-001
      -3.4132960678083119e-001 -1.0398576869938751e-002
      -4.8956851403250026e-002 1.0128552381790448e-001
      -6.1837687775571692e-001 1.0655243940367931e-001
      1.0829451299693247e+000 -2.5548789536624483e-001
      -2.1412822517286489e-001 2.4461472300662986e-002
      5.7208325937058678e-002 1.0050997061432412e-001
      1.2260895100541327e-001 -6.3785492480904621e-002
      -2.4508396228723037e-001 -1.1398038929997145e+000
      -1.5496646988127941e-001 -3.6294806714867656e-001
      -1.7692028534837620e-001 -8.2890517028070543e-001
      -1.3854916895581931e-001 5.6859456308662015e-001
      2.1643209855327300e-001 -4.1374777917078392e-001
      -1.0615512793930593e-001 -8.6590276045942022e-002
      -3.8820475439805414e-002 1.5659991045644528e-001
      2.5998940308828150e-001 2.1472485500913957e-003
      4.2954182191973650e-001 -2.9273283651108584e-001
      -1.5958332434564046e-003 -9.4997699990609960e-002
      -9.8134399803887478e-003 -1.3913246726193970e-001
      1.0713432181098624e-001 -8.6759612466261963e-003
      -6.4908369949889277e-001 2.4514564800975035e-002
      -2.5128336224038438e-002 7.9069952306185826e-002
      1.9616807171769970e-001 -4.9439112496772381e-001
      -2.2120222008948925e-001 -4.1716045561225140e-001
      -1.3034367500714028e-001 2.5722237367348573e+000
      1.9793689667039926e-001 1.0436788583879440e-001
      -1.8647556694727660e-001 6.1284478026003675e-002
      -2.0976887817990791e-001 3.3583342143265404e-001
      -5.2647410463541322e-001 3.8337509730781288e-001
      3.3513703300574745e-002 -1.1833107965425307e-001
      1.1848124964145135e-001 4.5113803710778617e-002
      3.6724291678787789e-002 -6.8944197049283129e-001
      -7.9136870143506011e-002 1.7567651000732964e-001
      9.6911019498468876e-001 2.0387119097973705e-001
      -9.7301426967909082e-004 7.3588497199002109e-002
      -3.2159840700129816e-001 3.8881794060403263e-002
      -1.0385792231363368e-001 7.1412300050094440e-002
      6.6463146530377215e-003 -8.0346795306777685e-002
      2.6128606607699556e-002 2.8354792328145856e-001
      -3.0441712771101644e-002 -2.2973091881575464e-001
      -1.5822380915944928e-002 2.6598875513135218e-003
      2.8825121145779328e-002 -3.0769209993201857e-001
      -3.5862490455707594e-002 1.9012201115372637e-001
      3.6180662685191622e-001 1.2261822961081945e-001
      4.1698137099337967e-001 6.1220178260461472e-002
      3.7770225876439759e-002 -3.3986839001780905e-001
      -8.9925484286749291e-001 5.2061601585320395e-002
      2.0400168203318147e-002 -1.6805507947780560e-001
      -2.5162213409637441e-001 2.0588795742671745e-001
      -8.5988467230150439e-002 -6.3362059075589963e-002
      -2.1896773800526362e-002 3.5641897384008907e-002
      1.7575980007097211e-001 -9.4568931365551112e-002
      -2.3421260433116355e+000 7.2894816091642189e-001
      2.9363612219604879e-001 7.4135823891862596e-001
      6.6654739840605104e-002 -3.0466518874951687e-001
      -9.1010883561389710e-003 1.1949747123679764e+000
      -2.8109261578935285e-002 9.2343337247774659e-002
      3.8752373918829040e-002 6.5258422780930497e-002
      8.8883251753979897e-001 -6.5025938025260396e-002
      3.6749382059001773e-002 -1.1369385936192417e-001
      -1.1845269790507201e-001 -1.0714587950741791e-001
      1.7255790800271492e-001 5.1988103671029018e-002
      -1.1204772387729480e+000 7.9473945136639623e-001
      2.2038432228318899e-001 -4.7227161267458273e-001
      7.8345801042972327e-002 -2.6816650261764879e-001
      2.3695639275486478e-002 5.9903705760981396e-001
      -4.2685332810099541e-001 -1.0644853819771888e-001
      -1.8719946383800506e-001 -1.2863695269504119e-001
      -8.9943238722403798e-002 4.0353228814545528e-001
      -3.3158602387847139e-002 -8.6717488402414486e-002
      -9.5172987368795023e-002 3.1394078151683665e-002
      4.8219982396930400e-002 -4.0745656538250380e-002
      -2.4469432817450251e-001 -5.2376886077609056e-002
      -2.8295790997152909e-001 -1.7467151853948218e-002
      -2.6691847809539770e-001 -5.1516691807876658e-001
      -6.1773637486865630e-002 -7.8539845696713864e-002
      -7.2306178334446458e-001 1.6361622912781812e-001
      -1.0687772168401588e-001 6.6101226388335751e-002
      -6.6330940777737282e-002 1.4218632478100461e-003
      -4.7926116376039628e-002 -1.5121104094163139e-002
      1.5335559465450238e-001 -9.0547245532363952e-004
      4.7906484809167704e-002 -1.0267130710411672e-002
      4.5133620466177471e-002 -2.3112890085107138e-001
      -2.7158844376093252e-002 -1.0408445305722566e-001
      4.9497478784802096e-002 -1.7807739611886392e-001
      -6.0438184228907448e-002 3.0000811339090350e-001
      -3.4894414514215488e-001 5.9695922252117850e-001
      -5.0841257244011770e-002 8.6223151190932823e-002
      3.7745915232248628e-002 -9.6215306649605870e-002
      1.0115971356943582e-002 -3.6298736891336926e-002
      7.0379133605373206e-002 -2.3883699527226285e-002
      2.1580232822066867e-002 6.2413908149028245e-002
      3.6667028677823815e-001 8.8250842135449287e-002
      2.3843878304293843e-002 1.5015621785559935e-001
      5.0899622706518079e-002 -1.7018587537024685e-001
      -1.9153923120439975e-001 2.1776376464177044e-002
      2.2410331002558259e-001 -1.1348921437094758e-002
      -3.0311181872047285e-003 1.4888881651357358e-001
      -5.8894623882573174e-002 -1.0196498634447825e-003
      -5.0476659699121684e-002 8.5080500277423851e-002
      1.0430305238304471e-001 -2.2980889955048214e-001
      -2.6976248244949194e-003 -1.5699838908991476e-001
      -3.4510676341190170e-002 3.0759906467486076e-001
      4.8502930277617723e-001 2.0232338225101978e-001
      3.1861224814287610e-003 -2.6412566546374722e-001
      -8.1302957739422677e-001 -4.5303909525354798e-003
      3.4275324948081015e-001 -1.8116020391896615e-001
      1.4017998895305217e-001 -2.8254176628692224e-001
      1.2013418624972676e-001 -3.9647600677244717e-002
      7.0987545352348871e-002 1.2323808577616581e-001
      -2.3746746076647698e-001 1.0293435856011382e-001
      -8.8460066483231825e-001 8.9210100152144166e-003
      2.6351808184396548e-002 3.9338216529627990e-002
      -2.7163373442747746e-003 -2.4489515542443957e-001
      -1.8486451750458922e-003 -8.2264096284339963e-002
      -3.5132085084165321e-002 -2.7777453544785202e-001
      5.5755346860728672e-001 -9.8385683106006414e-002
      1.3530300736525933e-001 -1.6282591904241583e-001
      -1.3263576093563681e-001 -6.1341124534461211e-001
      1.8940963326078111e-002 1.7454989638941198e-001
      -2.3592773012845222e-001 -5.0377314360207059e-001
      6.7661079850532147e-003 8.6981792176275718e-002
      -1.1549044574219955e-001 2.6436194962068310e-001
      -3.0764318213441783e-001 -7.0674794461531520e-002
      -1.0166711706394471e-001 4.9926687311144191e-001
      2.8222746133535387e-001 5.8202632207798075e-002
      -3.0568987052753599e-001 2.1248455090209212e-001
      -3.3291517748768301e-001 2.1228787911530297e-001
      -5.5022562519326627e-002 1.1370350855179923e-001
      -1.0875033430014485e-003 -2.7426071381104594e-001
      1.5694218248043421e-001 -5.9908584732340016e-002
      -2.5043714973968456e-001 -1.8221330319967355e-001
      -3.1067056126751577e-002 1.7301772110900610e-001
      5.1822114631483263e-001 3.3947766720912009e-001
      -3.3561273069277492e-001 -5.4219885785989332e-002
      -1.7240903785680337e-001 3.3531787600747334e-002
      -1.1980480589988023e-001 1.3462849557079912e-001
      -5.0738329876867952e-002 6.9773979635295547e-001
      -1.8846403186568969e-001 -8.3849268190991741e-002
      -3.0007548287770192e-001 7.6412989577313069e-003
      -7.2286974999867084e-003 -6.7722841436973491e-002
      1.9969878812598346e-002 3.6002941032601682e-002
      1.2302038063067149e-001 5.8494061492979935e-002
      1.2404856108491331e-001 1.6992569788415007e-001
      -2.4740791313396798e-001 1.6927965143069720e-001
      8.3096184351140356e-002 9.0823855270222922e-002
      -4.4408857883277406e-002 -1.2702976870782402e-002
      -1.8398341686035985e-001 2.1539963775836163e-001
      -1.8517508122484465e+000 1.4467534649765654e-001
      -7.8494719330143820e-002 -4.3304925637170158e-002
      -2.5675597997044947e-001 -5.5915914524828379e-002
      1.4377965398333312e-001 5.1030913584376565e-002
      8.6497597329563608e-002 1.2259890371321082e-002
      1.4069797995147706e-001 1.2493700928224860e-001
      3.2995908322825507e-001 -2.5469102004018024e-001
      1.6871892175484481e-002 1.2746571474423205e+000
      6.5331941707146124e-002 1.2625382820989853e-001
      9.3709117653025586e-002 4.8642305875272766e-004
      -1.0039344861568480e+000 4.9731421368317180e-002
      1.1502674789944262e-001 7.1033824106154012e-002
      -1.9051314917890097e-001 -4.8319292581710166e-002
      -9.3753945920792683e-002 5.5142107350107203e-002
      7.0164808321508967e-002 1.0040130975356849e+000
      3.4119538031673509e-002 -5.7741932610697919e-002
      3.0941516596943897e-001 -2.7656448769880654e-001
      1.1498044131253299e-001 9.8556450927955608e-001
      -1.7778295925234985e-002 6.0994725516594399e-002
      -5.1618118155579797e-002 -1.4413569982529370e-001
      -1.6781317932783313e-004 -4.5023988653231005e-002
      2.6307246255110489e-003 1.0783564874871247e-001
      1.2709988856300251e-002 4.4787845661684283e-002
      -2.7827164856151143e-001 -3.5438146881635206e-002
      -3.2680057383834643e-002 -4.5047252645988842e-002
      9.9667801677585877e-002 6.8227965115268741e-002
      6.9612295858920301e-002 1.6757227791414305e-002
      -1.1299931085197366e-001 1.0787096330637201e-001
      -5.6689601535821299e-001 3.0897405865831323e-001
      -1.0573796306894015e-002 -5.0719134135300908e-002
      1.5534560258826041e-001 -1.5597158886585608e-001
      -2.7724058586110011e-002 4.3371862136642486e-002
      1.7912570931206712e-002 -5.9463695144513676e-002
      -8.5612506570143770e-002 1.2212595893131845e-001
      3.5886493056004248e-001 2.7225026030518917e-001
      -7.6420393112984736e-002 -6.1285402130821065e-002
      3.4806298790145268e-003 2.9330057304495696e-003
      -1.6443306893129025e-001 2.7444872292157124e-001
      -7.5203702627651380e-003 2.1420519905003979e-001
      1.2395701338407972e-001 5.4823332794268091e-002
      -1.0412634418944149e+000 -1.1570157368072595e-001
      -1.4143268856075841e-001 -1.2641399442571000e-001
      -1.2926724359240976e-001 -5.2643718165788944e-001
      4.5015052928146476e-002 1.3047634617183404e-001
      2.6046551177227112e-001 -2.1070902260255928e+000
      4.7288770528581120e-001 -4.7152932003182424e-001
      -2.5877841841562771e-001 6.5279544832814818e-001
      -2.0437709892221212e-001 -1.4375200166983471e-001
      -3.5674701009805899e-003 2.2529647112290013e-001
      7.3764756225113526e-002 -4.8327428937210842e-001
      -6.1233197681079832e-001 5.2466222472432003e-002
      4.9640857647499335e-003 -5.7120346036589754e-002
      4.3562129488816875e-001 -8.2116127185722598e-001
      2.8404830377086437e-001 1.1062129952754864e-001
      1.5263715175913195e-001 -1.2421908909117587e+000
      1.1429647401512206e+000 -6.1560272241951386e-001
      2.9454654307003020e-001 2.8039816426929454e-001
      -6.0812089839579353e-001 -1.0174241474722361e-001
      -4.8021049176715042e-002 1.8195477764443044e-001
      -8.7658380394162266e-002 -9.8145455010136273e-001
      7.1381187925666334e-001 1.4636907098041108e-001
      1.0527000154781990e-003 -7.2562175967910869e-002
      -5.4690633752087592e-001 -1.4952334349058943e-001
      1.8429854808200016e-001 6.0190842844524348e-002
      1.7206986810588837e-001 4.8680297103171466e-001
      -2.8869490620756616e-001 2.6007138876188690e-001
      -6.3912267091228603e-001 3.8684553042267526e-002
      2.8916730691898259e-002 -1.4820657154317238e-001
      -1.4153544579993807e-001 5.9427854183998496e-001
      -1.0338237018284727e-001 -2.2422958350058680e-001
      4.5139139875350553e-001 -2.3265431635133479e-001
      1.2770562522863063e-001 -2.3563646332526267e-001
      -4.1810248177787439e-002 -7.1454306531172052e-001
      1.2272086456426687e+000 -4.8803592226011445e-002
      -1.3990415685203494e-001 4.5605637920835496e-001
      1.3164875943930660e-001 4.0516637777281383e-001
      -7.4975702228796859e-001 -3.2693012924879042e-003
      1.4063732996719771e+000 -3.7819767604794309e-002
      2.3703459735729548e-001 4.1277814983024970e-002
      -8.0919123893656664e-001 5.1948437259013491e-001
      -3.1637824731013930e-001 -6.2687257747697267e-001
      1.1374958629566422e-001 -2.1189843982129034e-001
      7.2251445621459090e-002 -1.3766657243668160e-002
      5.5170662195113143e-002 -2.4983009990147007e-001
      -2.7581281016762257e-002 4.3603153009039292e-001
      -6.0153794385376924e-001 7.0552316657155750e-003
      6.2096095937434703e-001 6.9008194835930747e-001
      1.4114400118420453e-001 2.0140740304219196e-002
      -1.3745307577062163e-001 3.3961130402062840e-002
      -5.5822919580520058e-001 3.1028799406695423e-002
      -3.8843791369426478e-001 -1.6289486381865861e-001
      2.9119427290968510e-002 1.6315980223478671e-001
      -1.6206833158848061e-001 3.8346956470220583e-001
      2.7909148716862647e-002 3.3229872785262168e-002
      7.4664493946152088e-001 -9.1598031735318317e-002
      -6.9801031335972707e-001 -3.2353925931807875e-001
      5.4321263402814657e-001 1.0363971218587740e+000
      2.2036157967769049e-001 1.9775144641255069e-001
      1.9835162219496538e-001 -2.8384748659600623e-001
      4.0277405948760323e-003 2.3232786372633160e-001
      -3.5619608422834141e+000 -3.5708169122085458e-002
      3.8295861545283860e-002 -2.8532158940959462e-001
      -9.8613488446505262e-002 -1.8434746009854153e-001
      8.2142455453222324e-002 7.0525595315408265e-002
      1.5352697440353793e+000 -1.4955079014464528e-001
      5.4582995436750448e-001 -5.8551916301151063e-001
      1.3248878456717603e-001 1.5492814903470845e-001
      -6.1108019804850505e-002 1.2591500326460456e+000
      2.9926445334372381e-001 -1.7360026497779954e-001
      -1.4164662864868019e-001 2.1992172118515915e-001
      -1.2163368388386386e+000 4.8715531848928004e-002
      -6.1779816186386727e-002 -4.1800285373092681e-002
      -9.2198897247560141e-002 -4.8870037466817113e-003
      3.2879137881723330e-001 5.6456302206619971e-002
      1.1416682720293331e-001 -8.9281719989007371e-002
      -9.5950143599892707e-002 -2.5575537556630779e-001
      6.7812974350939983e-002 -2.2651999430277256e-001
      -6.8754600175569100e-002 1.3712571391864410e+000
      1.9979477969908941e+000 2.1955148410469332e+000
      -1.4807353789791260e+000 2.3763669798218090e+000
      2.3156753471453202e+000 2.1748597730871193e+000
      1.2614241352143678e+000 -4.4555502504663869e-001
      -2.5327160125357606e+000 -2.8528556674515787e-001
      1.7799988177168735e+000 4.1681109822435497e-001
      2.2540384178510822e+000 -1.7590656991783129e+000
      1.8609881030876832e-001 -1.0681068024359686e+000
      1.8220738432811223e+000 3.9119082261363874e-001
      2.5945157204489866e-001 -1.3621476910290475e+000</_>
    <_>
      7.8085239382578597e-001 2.0506461904601278e-001
      -3.0225422968652799e-001 -6.5944667955104685e-001
      1.5249160923585059e-001 -9.2260437548990182e-001
      -4.2538418170311162e-002 -9.7924852829404674e-001
      -1.2363575154073585e+000 3.0945440630055376e-001
      -9.7072340182206029e-001 -1.1335922069754540e+000
      -4.1025413763001273e-001 -2.9419376848837470e-001
      2.3587029257098990e-002 -5.8040274096426381e-001
      4.6998745025873212e-001 8.9520602867939747e-001
      -3.6046480562042010e-001 -2.5761234658047871e+000
      2.4445271476059607e-001 1.1087233186470231e+000
      8.7135139257534155e-001 -2.0212178150279092e-001
      3.8660785164127368e-002 -7.6325845753175936e-001
      1.8951773252083323e-001 -4.1481593040396020e-001
      -1.5994405922753141e-001 4.4100307585472209e-001
      1.1439774325617014e+000 -6.7821689850240297e-001
      -6.6864344280491128e-001 -3.2428536927566520e-001
      -1.4398647958451047e-001 1.6189590161902356e-001
      -1.3609747190632687e-001 -4.8805688832692859e-003
      -3.4383462949062576e-001 -5.4917861810941118e-002
      -2.1966392384150310e-002 6.7523042199805500e-003
      -8.7884184377238783e-001 -1.0789866035537174e-001
      -1.1425996107351757e-001 4.4567780538956475e-001
      -1.2874893905944937e+000 -6.4286498340543161e-002
      -7.0789392488523784e-001 -1.7416903893252914e-001
      9.5430946318800655e-002 6.9082137461650450e-001
      2.9391812383455101e-001 -1.0005742122853925e+000
      -7.1470723560452531e-001 2.7889909749053621e-001
      -2.5382743568940480e-001 5.4946246509786814e-002
      -7.4989724034356009e-001 -6.4498680143102227e-001
      3.4291841004580553e-001 -1.0631906508204803e+000
      2.0507346209104071e-001 -1.5017060180417796e+000
      9.6728784210882462e-002 -7.7033719926635247e-001
      -6.4909458224094396e-001 -8.9392326693041857e-001
      2.8797686900891151e-001 -6.6428332941626278e-001
      -6.3976973190401520e-001 -1.0294658886040491e+000
      -4.4319468633898557e-001 -6.2677114760691799e-001
      -1.1630192337449079e+000 -6.2649410492054136e-001
      -4.6248096566840219e-001 -5.8553592609721516e-001
      -8.6330461169324324e-001 -1.7328874862325472e-001
      -3.5492442308972444e-001 -6.7663562785062048e-001
      2.2798194706548747e-001 -7.0905472746617537e-001
      -6.4932092806039965e-001 -6.0805507344937082e-001
      -4.9246933235769375e-001 -2.6497371669993919e-001
      -2.5372703169029898e-001 1.6862913504732024e-001
      -2.6905276240494003e-001 7.3662036593464858e-004
      -9.8874530687685513e-001 1.9868896000906131e-001
      -3.3223626361807812e-001 -2.4752585615022951e-001
      5.0108785120223021e-001 -4.7182439050827127e-002
      -3.8051272631496119e-001 -6.2877473182684773e-002
      -6.4294749072652690e-001 -5.9712850992944899e-001
      -3.3671606679729260e-001 -3.6174163854832581e-001
      1.4056701733895877e-001 1.1122662881728472e-001
      4.0246839174354010e-002 -5.7361210544607799e-001
      -9.7293140123754995e-001 2.1363665266564786e+000
      -9.5557980420343458e-001 -6.9393958220193497e-001
      -1.9729693728921793e-001 6.6377268328603389e-001
      3.4933653998807754e+000 -8.7277212829085460e-001
      -6.5495503871300664e-001 1.5930671767761555e+000
      9.4763530892599368e-001 -7.3758391917059574e-002
      -6.9909182617338173e-001 -3.0516539553173020e-002
      -3.5960275068218922e-001 3.1892591832588386e+000
      -7.0506366570105294e-001 -1.4716650850177815e-002
      5.4551160785535728e-002 3.4219981984127912e-001
      -1.0923303970433695e-001 -5.1215353506608929e-001
      2.5587492465447503e-001 -1.1969290647128197e+000
      -1.9700311702059475e-001 -2.6125207561257863e-001
      -7.0644647500954150e-001 9.6817399184574726e-001
      -2.0743425819873712e-001 1.4544582312282039e+000
      1.3659462295173423e+000 7.1377836469029332e-001
      1.3205464676199228e+000 -6.5194076111824895e-001
      2.0555445457198193e-001 1.4101995732892270e-001
      2.1587432982166904e-001 5.6612190527294950e-002
      1.6247977520843884e+000 7.4040038433544883e-002
      2.9024813578345005e-001 1.3007726066825326e-001
      4.4674949509943701e-001 1.5465396122952291e-001
      1.6227409030749693e-001 2.1507627772245094e-001
      1.0995907212432030e+000 3.2724770622812771e-001
      1.8495504075960110e+000 5.4673694427076580e-001
      9.6810348043739980e-001 5.7023809354333677e-001
      4.9808742096592334e-002 6.2465742026897053e-001
      -2.2102925871458429e-001 -4.0591430753768448e-001
      -1.1402007466718722e+000 -1.9836656723494046e+000
      1.2820709116328341e-001 -4.1603491864723383e-002
      -1.1124945623250098e+000 -8.8682005849315415e-001
      -2.6798020068119677e-001 -9.0679155609612283e-001
      5.1876429474877583e-001 -1.8810667178952887e+000
      -9.9403927349648291e-001 -3.5723485630140861e-001
      1.9737404683565753e-002 -4.5373516431742106e-001
      3.2531671640007281e-002 3.1208600421578825e-001
      2.4072075317747202e-001 1.9075398183902650e-002
      4.0747282917392269e-001 -7.2786981752042801e-001
      -1.8788430276301679e-001 -7.3005252893605133e-001
      3.7709926758997914e-001 6.9367474636934212e-001
      1.1859413099311000e-001 -9.1128740484674475e-001
      -6.1997043095049209e-001 -1.5256115295690078e+000
      -7.1206643756840937e-001 -1.9488501924934182e-001
      -4.5730651229229857e-001 -2.3313884703256211e+000
      -6.5925647830203091e-002 -2.6454468711035567e-001
      -3.8295800207609358e-002 8.7748162878791183e-002
      -1.6555646725238349e+000 -1.0658524085027987e-001
      -1.1649629879637927e-001 -1.4308738785329239e-001
      1.0033888247457452e+000 9.8210100726308702e-002
      1.8892611883070752e-002 -2.1014569280648157e-001
      -6.6101071938865316e-002 -6.6790898464926696e-001
      1.7518550733757865e-001 -8.0085881967765371e-001
      2.2303673990427264e-003 4.9906376401080388e-001
      3.5419505893120989e-001 5.9402594381699585e-003
      1.0237938024837513e-001 -4.7370781765174469e-001
      -3.6193110675318846e-001 1.1187247108098813e-001
      -1.2138580428142201e+000 -3.2088730254595121e-001
      -1.5014861837192233e+000 -1.0483964311237479e+000
      2.0535642738481064e-001 2.0325799485367485e-001
      -2.1000830888810618e+000 -1.8262141416413187e+000
      -5.2405326776863201e-002 -5.2062522759079277e-001
      -5.5074679733393350e-001 -4.1974781799574840e-001
      3.5988120054582584e-001 -1.6611720422820933e+000
      -2.0291849493456211e+000 -9.9642144365262719e-001
      -2.8628396394034433e-001 -1.0321385548668651e+000
      -6.9981050692044811e-001 2.2132247499394506e-001
      -2.6118171088346925e-001 -1.0560727771939764e+000
      -3.8112762077186602e-001 -7.0361170932633854e-001
      -4.0776545887523036e-001 -6.2324331194324767e-001
      -8.0193457918407518e-001 1.9991380179880644e-001
      -1.7638805788237716e-001 -7.2098509451083803e-001
      -3.2252868237411708e-001 -3.6758334324571462e-001
      -1.0626563646163699e-001 -1.3696112819153696e-002
      2.1901545601836084e-001 -7.8383104632428077e-002
      -1.7947052782328171e-001 8.9205091433424158e-002
      1.1086038161982017e+000 -1.2426623373443776e-001
      -1.1867815625059813e-001 3.2440190366744098e-001
      -5.6202159156988951e-001 -1.6474941806088483e-001
      -2.8190716095442048e-002 3.1114113526270037e-001
      -4.2420968770832901e-001 1.5462983644767964e-001
      4.5975406064381014e-001 -7.5033823339003070e-001
      -3.6882836476131126e-001 -4.3175073489345001e-001
      -8.2303645106183720e-001 8.8479336427425137e-001
      -1.6436603363119140e+000 -1.7088808018933621e-001
      5.9130181663478132e-001 -8.5840560249426756e-001
      -7.1852403869328352e-001 1.1227756681154064e+000
      -1.3528639244824812e+000 3.5183681922458837e-001
      -7.5516597736609570e-002 6.4547801104305924e-001
      -6.5080757954473678e-001 3.0534742458221320e-001
      -2.0045519093013223e-001 -7.5239563408390928e-002
      -1.3222240784196650e+000 7.7912657104566088e-002
      -2.7651258635579583e+000 4.0472471312935498e-001
      1.0626037216541182e+000 -2.1311341157517847e-002
      2.2720226198423010e-001 2.5134846043984321e-001
      6.8783854233731034e-001 -8.1107848711987218e-001
      1.6696608053448489e-001 -7.4542027910922193e-001
